{"learner":{"attributes":{"scikit_learn":"{\"_estimator_type\": \"classifier\"}"},"feature_names":["Latitude","Longitude","MedInc"],"feature_types":["float","float","float"],"gradient_booster":{"model":{"gbtree_model_param":{"num_parallel_tree":"1","num_trees":"600"},"iteration_indptr":[0,6,12,18,24,30,36,42,48,54,60,66,72,78,84,90,96,102,108,114,120,126,132,138,144,150,156,162,168,174,180,186,192,198,204,210,216,222,228,234,240,246,252,258,264,270,276,282,288,294,300,306,312,318,324,330,336,342,348,354,360,366,372,378,384,390,396,402,408,414,420,426,432,438,444,450,456,462,468,474,480,486,492,498,504,510,516,522,528,534,540,546,552,558,564,570,576,582,588,594,600],"tree_info":[0,1,2,3,4,5,0,1,2,3,4,5,0,1,2,3,4,5,0,1,2,3,4,5,0,1,2,3,4,5,0,1,2,3,4,5,0,1,2,3,4,5,0,1,2,3,4,5,0,1,2,3,4,5,0,1,2,3,4,5,0,1,2,3,4,5,0,1,2,3,4,5,0,1,2,3,4,5,0,1,2,3,4,5,0,1,2,3,4,5,0,1,2,3,4,5,0,1,2,3,4,5,0,1,2,3,4,5,0,1,2,3,4,5,0,1,2,3,4,5,0,1,2,3,4,5,0,1,2,3,4,5,0,1,2,3,4,5,0,1,2,3,4,5,0,1,2,3,4,5,0,1,2,3,4,5,0,1,2,3,4,5,0,1,2,3,4,5,0,1,2,3,4,5,0,1,2,3,4,5,0,1,2,3,4,5,0,1,2,3,4,5,0,1,2,3,4,5,0,1,2,3,4,5,0,1,2,3,4,5,0,1,2,3,4,5,0,1,2,3,4,5,0,1,2,3,4,5,0,1,2,3,4,5,0,1,2,3,4,5,0,1,2,3,4,5,0,1,2,3,4,5,0,1,2,3,4,5,0,1,2,3,4,5,0,1,2,3,4,5,0,1,2,3,4,5,0,1,2,3,4,5,0,1,2,3,4,5,0,1,2,3,4,5,0,1,2,3,4,5,0,1,2,3,4,5,0,1,2,3,4,5,0,1,2,3,4,5,0,1,2,3,4,5,0,1,2,3,4,5,0,1,2,3,4,5,0,1,2,3,4,5,0,1,2,3,4,5,0,1,2,3,4,5,0,1,2,3,4,5,0,1,2,3,4,5,0,1,2,3,4,5,0,1,2,3,4,5,0,1,2,3,4,5,0,1,2,3,4,5,0,1,2,3,4,5,0,1,2,3,4,5,0,1,2,3,4,5,0,1,2,3,4,5,0,1,2,3,4,5,0,1,2,3,4,5,0,1,2,3,4,5,0,1,2,3,4,5,0,1,2,3,4,5,0,1,2,3,4,5,0,1,2,3,4,5,0,1,2,3,4,5,0,1,2,3,4,5,0,1,2,3,4,5,0,1,2,3,4,5,0,1,2,3,4,5,0,1,2,3,4,5,0,1,2,3,4,5,0,1,2,3,4,5,0,1,2,3,4,5,0,1,2,3,4,5,0,1,2,3,4,5,0,1,2,3,4,5,0,1,2,3,4,5,0,1,2,3,4,5,0,1,2,3,4,5,0,1,2,3,4,5,0,1,2,3,4,5,0,1,2,3,4,5,0,1,2,3,4,5,0,1,2,3,4,5,0,1,2,3,4,5,0,1,2,3,4,5,0,1,2,3,4,5,0,1,2,3,4,5],"trees":[{"base_weights":[-6.473882E-2,1.0215237E0,-4.6419817E-1,-5.864425E-1,2.7185416E0,-5.792735E-1,9.1014124E-2,-5.9586316E-1,3.658536E-1,2.9067264E0,-1.7458194E-1,1.5039574E-1,-5.9028465E-1,-5.8350414E-1,2.7438328E0,-1.7922981E-1,-3.4513274E-1,3.8571426E-1,-1.3846155E-1,1.8477508E0,2.9646254E0,-1.744898E-1,2.4255319E0,-1.7981668E-1,-3.8794294E-1,-5.942773E-1,1.578947E-1,2.7834454E0,-5.029142E-9,4.736842E-2,-1.4516129E-1,2.5319147E0,-1.7341064E-2,2.9755561E0,1.5663716E0,7.9746836E-1,2.25E-1,-1.7836198E-1,1.5633801E0,-1.795903E-1,-4.375E-1,3.9056602E-1,-1.4693879E-1,1.8108107E0,8.816222E-1,7.986595E-1,3.4411764E-1,-1.5132743E-1,2.0769231E-1,8.965707E-1,5.223776E-1,-1.0465116E-1,6.545454E-1,7.781955E-1,-3.67347E-2,1.8947369E-1,-1.6791046E-1,7.5789475E-1,6.5853655E-2],"categories":[],"categories_nodes":[],"categories_segments":[],"categories_sizes":[],"default_left":[0,0,0,0,0,0,0,0,0,0,0,0,0,0,0,0,0,0,0,0,0,0,0,0,0,0,0,0,0,0,0,0,0,0,0,0,0,0,0,0,0,0,0,0,0,0,0,0,0,0,0,0,0,0,0,0,0,0,0],"id":0,"left_children":[1,3,5,7,9,11,13,15,17,19,-1,21,23,25,27,-1,29,-1,-1,31,33,-1,35,-1,37,39,41,43,-1,-1,-1,45,47,49,51,-1,-1,-1,53,-1,55,-1,-1,57,-1,-1,-1,-1,-1,-1,-1,-1,-1,-1,-1,-1,-1,-1,-1],"loss_changes":[1.9911442E3,3.3682622E3,2.1440082E2,5.9088135E0,3.7462842E2,2.2417053E1,1.0337722E3,4.1122437E-2,5.794157E0,2.9361328E1,0E0,7.154532E1,4.8112183E0,3.7737274E0,1.2728821E1,0E0,5.145214E-1,0E0,0E0,4.1018593E1,3.5488281E0,0E0,2.0784988E0,0E0,4.9597145E1,4.8431396E-2,6.112478E0,1.2115784E1,0E0,0E0,0E0,1.1862793E0,3.6713781E0,3.338379E0,8.1607685E0,0E0,0E0,0E0,2.0877144E1,0E0,2.4437845E0,0E0,0E0,2.0509216E1,0E0,0E0,0E0,0E0,0E0,0E0,0E0,0E0,0E0,0E0,0E0,0E0,0E0,0E0,0E0],"parents":[2147483647,0,0,1,1,2,2,3,3,4,4,5,5,6,6,7,7,8,8,9,9,11,11,12,12,13,13,14,14,16,16,19,19,20,20,22,22,24,24,25,25,26,26,27,27,31,31,32,32,33,33,34,34,38,38,40,40,43,43],"right_children":[2,4,6,8,10,12,14,16,18,20,-1,22,24,26,28,-1,30,-1,-1,32,34,-1,36,-1,38,40,42,44,-1,-1,-1,46,48,50,52,-1,-1,-1,54,-1,56,-1,-1,58,-1,-1,-1,-1,-1,-1,-1,-1,-1,-1,-1,-1,-1,-1,-1],"split_conditions":[-1.2162E2,3.9625E0,3.68E1,3.9375E0,9.281E0,-1.2048E2,4.1719E0,3.9187E0,3.777E1,4.0556E0,-1.7458194E-1,3.7644E0,3.628E1,4.1058E0,8.7471E0,-1.7922981E-1,3.732E1,3.8571426E-1,-1.3846155E-1,3.801E1,3.894E1,-1.744898E-1,-1.2059E2,-1.7981668E-1,4.0893E0,4E0,3.775E1,4.3542E0,-5.029142E-9,4.736842E-2,-1.4516129E-1,3.794E1,4.0282E0,8.7471E0,4.2813E0,7.9746836E-1,2.25E-1,-1.7836198E-1,-1.1937E2,-1.795903E-1,3.695E1,3.9056602E-1,-1.4693879E-1,3.854E1,8.816222E-1,7.986595E-1,3.4411764E-1,-1.5132743E-1,2.0769231E-1,8.965707E-1,5.223776E-1,-1.0465116E-1,6.545454E-1,7.781955E-1,-3.67347E-2,1.8947369E-1,-1.6791046E-1,7.5789475E-1,6.5853655E-2],"split_indices":[1,2,0,2,2,1,2,2,0,2,0,2,0,2,2,0,0,0,0,0,0,0,1,0,2,2,0,2,0,0,0,0,2,2,2,0,0,0,1,0,0,0,0,0,0,0,0,0,0,0,0,0,0,0,0,0,0,0,0],"split_type":[0,0,0,0,0,0,0,0,0,0,0,0,0,0,0,0,0,0,0,0,0,0,0,0,0,0,0,0,0,0,0,0,0,0,0,0,0,0,0,0,0,0,0,0,0,0,0,0,0,0,0,0,0,0,0,0,0,0,0],"sum_hessian":[4.586667E3,1.2327778E3,3.3538892E3,6.333334E2,5.9944446E2,2.7780557E3,5.758334E2,6.275E2,5.8333335E0,5.672222E2,3.2222225E1,4.1111115E1,2.7369446E3,4.5972223E2,1.16111115E2,6.222222E2,5.277778E0,2.5E0,3.3333335E0,3.1111113E1,5.3611115E2,3.1666668E1,9.444445E0,2.6172224E3,1.1972223E2,4.5333334E2,6.3888893E0,1.1444445E2,1.6666667E0,1.1111112E0,4.166667E0,2.2500002E1,8.611112E0,5.308334E2,5.277778E0,7.777778E0,1.6666667E0,1.0888889E2,1.0833334E1,4.3833334E2,1.5000001E1,1.9444445E0,4.4444447E0,1.75E1,9.694445E1,1.9722223E1,2.777778E0,5.277778E0,3.3333335E0,5.238889E2,6.9444447E0,1.388889E0,3.888889E0,6.3888893E0,4.4444447E0,1.1111112E0,1.3888889E1,1.1666667E1,5.8333335E0],"tree_param":{"num_deleted":"0","num_feature":"3","num_nodes":"59","size_leaf_vector":"1"}},{"base_weights":[2.2996436E-1,-5.8329207E-1,9.348597E-1,-5.9776264E-1,-1.8268527E-1,1.9804472E0,-5.9539306E-1,-1.7976476E-1,-3.8255033E-1,2.2340424E0,-5.6077117E-1,2.9156818E0,-5.5787396E-1,-1.7981954E-1,4.7368422E-1,3.3157894E-1,-1.6834533E-1,1.125E-1,7.632911E-1,2.0930227E-2,-5.753425E-1,-2.4590164E-1,2.943301E0,9.4818646E-1,-1.7953166E-1,-1.7712767E-1,-1.0344829E-1,4.285714E-1,-1.5652174E-1,2.969186E0,1.5040213E0,4.736842E-2,1.0231214E0,4.736842E-2,-9.4736844E-2,3.3157894E-1,-1.0465116E-1,3.1243524E-1,8.959174E-1,-1.4516129E-1,6.100671E-1,1.8281248E-1,4.7142854E-1],"categories":[],"categories_nodes":[],"categories_segments":[],"categories_sizes":[],"default_left":[0,0,0,0,0,0,0,0,0,0,0,0,0,0,0,0,0,0,0,0,0,0,0,0,0,0,0,0,0,0,0,0,0,0,0,0,0,0,0,0,0,0,0],"id":1,"left_children":[1,3,5,7,9,11,13,-1,15,17,19,21,23,-1,-1,-1,-1,-1,-1,-1,25,27,29,31,-1,-1,33,35,-1,37,39,-1,41,-1,-1,-1,-1,-1,-1,-1,-1,-1,-1],"loss_changes":[2.630474E3,1.2242737E1,3.933923E3,4.136963E-1,7.0442505E1,3.4686143E3,9.642303E0,0E0,5.019438E0,5.070122E0,6.490841E-1,9.392871E1,2.464154E1,0E0,0E0,0E0,0E0,0E0,0E0,0E0,4.0077782E-1,2.1150596E0,3.4958984E1,4.7342777E-1,0E0,0E0,2.2867513E-1,2.2267876E0,0E0,3.1333984E1,2.2797424E1,0E0,1.2227898E0,0E0,0E0,0E0,0E0,0E0,0E0,0E0,0E0,0E0,0E0],"parents":[2147483647,0,0,1,1,2,2,3,3,4,4,5,5,6,6,8,8,9,9,10,10,11,11,12,12,20,20,21,21,22,22,23,23,26,26,27,27,29,29,30,30,32,32],"right_children":[2,4,6,8,10,12,14,-1,16,18,20,22,24,-1,-1,-1,-1,-1,-1,-1,26,28,30,32,-1,-1,34,36,-1,38,40,-1,42,-1,-1,-1,-1,-1,-1,-1,-1,-1,-1],"split_conditions":[3.3906E0,3.3182E0,3.641E1,3.3021E0,3.375E1,5.6345E0,-1.1892E2,-1.7976476E-1,3.349E1,-1.1778E2,3.377E1,-1.2059E2,5.6762E0,-1.7981954E-1,4.7368422E-1,3.3157894E-1,-1.6834533E-1,1.125E-1,7.632911E-1,2.0930227E-2,-1.1734E2,3.529E1,3.542E1,3.319E1,-1.7953166E-1,-1.7712767E-1,-1.1725E2,3.7644E0,-1.5652174E-1,3.4028E0,-1.195E2,4.736842E-2,-1.1794E2,4.736842E-2,-9.4736844E-2,3.3157894E-1,-1.0465116E-1,3.1243524E-1,8.959174E-1,-1.4516129E-1,6.100671E-1,1.8281248E-1,4.7142854E-1],"split_indices":[2,2,0,2,0,2,1,0,0,1,0,1,2,0,0,0,0,0,0,0,1,0,0,0,0,0,1,2,0,2,1,0,1,0,0,0,0,0,0,0,0,0,0],"split_type":[0,0,0,0,0,0,0,0,0,0,0,0,0,0,0,0,0,0,0,0,0,0,0,0,0,0,0,0,0,0,0,0,0,0,0,0,0,0,0,0,0,0,0],"sum_hessian":[4.586667E3,2.1297224E3,2.4569446E3,2.055E3,7.472223E1,1.4594445E3,9.9750006E2,2.0394446E3,1.5555556E1,9.444445E0,6.527778E1,1.0663889E3,3.9305557E2,9.963889E2,1.1111112E0,1.1111112E0,1.4444445E1,1.6666667E0,7.777778E0,1.388889E0,6.3888893E1,9.166667E0,1.0572223E3,9.722222E0,3.8333334E2,6.1666668E1,2.2222223E0,2.5E0,6.666667E0,1.0375E3,1.9722223E1,1.1111112E0,8.611112E0,1.1111112E0,1.1111112E0,1.1111112E0,1.388889E0,9.722222E0,1.0277778E3,4.166667E0,1.5555556E1,6.1111116E0,2.5E0],"tree_param":{"num_deleted":"0","num_feature":"3","num_nodes":"43","size_leaf_vector":"1"}},{"base_weights":[-3.208603E-1,-1.7995423E-1,1.352961E0,2.6541393E0,-5.9392786E-1,2.8960168E0,-5.096525E-1,-1.7931399E-1,4.736842E-2,1.2279792E0,2.9381537E0,1.125E-1,-1.7336065E-1,8.4905654E-2,1.4050632E0,8.955097E-1,2.117647E0,5.516129E-1,1.8433735E-1,8.092437E-1,3.5425532E-1],"categories":[],"categories_nodes":[],"categories_segments":[],"categories_sizes":[],"default_left":[0,0,0,0,0,0,0,0,0,0,0,0,0,0,0,0,0,0,0,0,0],"id":2,"left_children":[1,-1,3,5,7,9,11,-1,-1,13,15,-1,-1,-1,17,-1,19,-1,-1,-1,-1],"loss_changes":[2.1431355E3,0E0,1.6626844E3,3.0238916E2,8.442764E-1,2.207788E1,1.9533749E0,0E0,0E0,1.3965683E0,7.361084E0,0E0,0E0,0E0,1.879591E0,0E0,9.126862E0,0E0,0E0,0E0,0E0],"parents":[2147483647,0,0,2,2,3,3,4,4,5,5,6,6,9,9,10,10,14,14,16,16],"right_children":[2,-1,4,6,8,10,12,-1,-1,14,16,-1,-1,-1,18,-1,20,-1,-1,-1,-1],"split_conditions":[5.6345E0,-1.7995423E-1,3.6E1,1.05144E1,-1.1967E2,5.6762E0,3.307E1,-1.7931399E-1,4.736842E-2,-1.1857E2,9.281E0,1.125E-1,-1.7336065E-1,8.4905654E-2,-1.1794E2,8.955097E-1,3.392E1,5.516129E-1,1.8433735E-1,8.092437E-1,3.5425532E-1],"split_indices":[2,0,0,2,1,2,0,0,0,1,2,0,0,0,1,0,0,0,0,0,0],"split_type":[0,0,0,0,0,0,0,0,0,0,0,0,0,0,0,0,0,0,0,0,0],"sum_hessian":[4.586667E3,3.9319446E3,6.547222E2,3.9222223E2,2.625E2,3.6444446E2,2.7777779E1,2.6138892E2,1.1111112E0,9.722222E0,3.5472223E2,1.6666667E0,2.6111113E1,1.9444445E0,7.777778E0,3.3305557E2,2.1666668E1,4.166667E0,3.6111112E0,1.2222223E1,9.444445E0],"tree_param":{"num_deleted":"0","num_feature":"3","num_nodes":"21","size_leaf_vector":"1"}},{"base_weights":[3.5224873E-1,1.4241905E0,-5.9033513E-1,2.8861525E0,-5.685484E-1,-1.6417912E-1,-5.960155E-1,-1.5810812E-1,2.906601E0,-5.971045E-1,1.547085E0,-1.6981132E-1,2.6732668E-1,-5.232904E-1,-1.7979114E-1,2.9420788E0,1.8048779E0,-1.7979799E-1,-2.7272728E-1,1.9468083E0,-1.1886793E-1,6.677419E-1,-1.6578947E-1,-1.7687862E-1,-4.4488978E-1,2.9691837E0,1.5034641E0,-3.2142857E-1,2.3571427E0,1.8947369E-1,-1.5365854E-1,1.4651163E-1,6.349693E-1,1.2650602E0,-1.7652734E-1,7.002845E-1,8.9654917E-1,-5.7635475E-2,8.346774E-1,-1.5734266E-1,1.4651163E-1,8.002309E-1,4.0057802E-1,2.0930227E-2,5.275862E-1],"categories":[],"categories_nodes":[],"categories_segments":[],"categories_sizes":[],"default_left":[0,0,0,0,0,0,0,0,0,0,0,0,0,0,0,0,0,0,0,0,0,0,0,0,0,0,0,0,0,0,0,0,0,0,0,0,0,0,0,0,0,0,0,0,0],"id":3,"left_children":[1,3,5,7,9,11,13,-1,15,17,19,-1,21,23,-1,25,27,-1,29,31,-1,-1,-1,-1,33,35,37,39,41,-1,-1,-1,-1,43,-1,-1,-1,-1,-1,-1,-1,-1,-1,-1,-1],"loss_changes":[4.636197E3,6.25603E3,5.8131714E0,8.79707E1,5.5860474E1,5.9603624E0,2.6257324E-1,0E0,4.2816406E1,4.8376465E-1,1.0394903E1,0E0,2.8262224E1,3.2048607E-1,0E0,4.198828E1,4.8903305E1,0E0,2.043879E0,1.5521431E0,0E0,0E0,0E0,0E0,1.4352513E1,7.348633E0,5.269419E1,1.7907964E0,6.796341E0,0E0,0E0,0E0,0E0,2.5976276E0,0E0,0E0,0E0,0E0,0E0,0E0,0E0,0E0,0E0,0E0,0E0],"parents":[2147483647,0,0,1,1,2,2,3,3,4,4,5,5,6,6,8,8,9,9,10,10,12,12,13,13,15,15,16,16,18,18,19,19,24,24,25,25,26,26,27,27,28,28,33,33],"right_children":[2,4,6,8,10,12,14,-1,16,18,20,-1,22,24,-1,26,28,-1,30,32,-1,-1,-1,-1,34,36,38,40,42,-1,-1,-1,-1,44,-1,-1,-1,-1,-1,-1,-1,-1,-1,-1,-1],"split_conditions":[3.4028E0,3.641E1,3.4375E0,-1.2072E2,-1.1937E2,3.422E1,3.5417E0,-1.5810812E-1,3.3427E0,-1.195E2,3.739E1,-1.6981132E-1,3.641E1,3.495E1,-1.7979114E-1,3.628E1,3.375E1,-1.7979799E-1,1.7054E0,-1.1931E2,-1.1886793E-1,6.677419E-1,-1.6578947E-1,-1.7687862E-1,3.641E1,-1.1985E2,-1.195E2,3.369E1,3.3906E0,1.8947369E-1,-1.5365854E-1,1.4651163E-1,6.349693E-1,-1.2048E2,-1.7652734E-1,7.002845E-1,8.9654917E-1,-5.7635475E-2,8.346774E-1,-1.5734266E-1,1.4651163E-1,8.002309E-1,4.0057802E-1,2.0930227E-2,5.275862E-1],"split_indices":[2,0,2,1,1,0,2,0,2,1,0,0,0,0,0,0,0,0,2,1,0,0,0,0,0,1,1,0,2,0,0,0,0,1,0,0,0,0,0,0,0,0,0,0,0],"split_type":[0,0,0,0,0,0,0,0,0,0,0,0,0,0,0,0,0,0,0,0,0,0,0,0,0,0,0,0,0,0,0,0,0,0,0,0,0,0,0,0,0,0,0,0,0],"sum_hessian":[4.586667E3,2.1458335E3,2.4408335E3,1.2375E3,9.083334E2,3.25E1,2.4083335E3,7.2222223E0,1.2302778E3,8.9694446E2,1.1388889E1,1.6666668E1,1.5833334E1,1.11111115E2,2.2972224E3,1.1902778E3,4E1,8.9000006E2,6.9444447E0,9.444445E0,1.9444445E0,4.166667E0,1.1666667E1,5.6666668E1,5.4444447E1,1.1672223E3,2.3055557E1,8.333334E0,3.1666668E1,1.1111112E0,5.8333335E0,1.388889E0,8.055556E0,3.6111112E0,5.0833336E1,3.8055557E1,1.1291667E3,1.0277779E1,1.2777779E1,6.9444447E0,1.388889E0,2.3055557E1,8.611112E0,1.388889E0,2.2222223E0],"tree_param":{"num_deleted":"0","num_feature":"3","num_nodes":"45","size_leaf_vector":"1"}},{"base_weights":[-5.462472E-1,-5.97425E-1,2.2122014E0,-1.7982616E-1,-1.03448294E-1,1.24924E0,2.8963132E0,-1.6442308E-1,4.9367082E-1,8.4374994E-1,3.0927807E-2,3.3749998E-1,8.806682E-1,-1.6666669E-1,4.2352942E-1,-4.789916E-1,7.4999994E-1,2.0689653E-1,-1.3235295E-1,4.736842E-2,-1.6513762E-1,7.317071E-2,5.5714285E-1,-9.4736844E-2,1.8947369E-1,1.3846153E-1,-1.2857144E-1],"categories":[],"categories_nodes":[],"categories_segments":[],"categories_sizes":[],"default_left":[0,0,0,0,0,0,0,0,0,0,0,0,0,0,0,0,0,0,0,0,0,0,0,0,0,0,0],"id":4,"left_children":[1,3,5,-1,7,9,11,-1,13,-1,15,-1,-1,17,-1,19,21,23,-1,-1,-1,25,-1,-1,-1,-1,-1],"loss_changes":[6.48969E2,4.37854E0,5.1572357E1,0E0,5.403497E0,6.9534485E1,4.989624E-2,0E0,5.556837E0,0E0,8.262994E0,0E0,0E0,7.065584E-1,0E0,6.887429E-1,6.858014E0,9.147005E-1,0E0,0E0,0E0,1.5293486E0,0E0,0E0,0E0,0E0,0E0],"parents":[2147483647,0,0,1,1,2,2,4,4,5,5,6,6,8,8,10,10,13,13,15,15,16,16,17,17,21,21],"right_children":[2,4,6,-1,8,10,12,-1,14,-1,16,-1,-1,18,-1,20,22,24,-1,-1,-1,26,-1,-1,-1,-1,-1],"split_conditions":[9.281E0,8.7471E0,1.05144E1,-1.7982616E-1,3.444E1,-1.187E2,3.307E1,-1.6442308E-1,-1.2201E2,8.4374994E-1,3.392E1,3.3749998E-1,8.806682E-1,3.756E1,4.2352942E-1,-1.1837E2,1.00765E1,3.741E1,-1.3235295E-1,4.736842E-2,-1.6513762E-1,-1.1839E2,5.5714285E-1,-9.4736844E-2,1.8947369E-1,1.3846153E-1,-1.2857144E-1],"split_indices":[2,2,2,0,0,1,0,0,1,0,0,0,0,0,0,1,2,0,0,0,0,1,0,0,0,0,0],"split_type":[0,0,0,0,0,0,0,0,0,0,0,0,0,0,0,0,0,0,0,0,0,0,0,0,0,0,0],"sum_hessian":[4.586667E3,4.503889E3,8.277778E1,4.4855557E3,1.8333334E1,3.5555557E1,4.7222225E1,1.0555556E1,7.777778E0,1.5000001E1,2.0555557E1,1.6666667E0,4.5555557E1,5E0,2.777778E0,1.2222223E1,8.333334E0,2.2222223E0,2.777778E0,1.1111112E0,1.1111112E1,5.8333335E0,2.5E0,1.1111112E0,1.1111112E0,3.3333335E0,2.5E0],"tree_param":{"num_deleted":"0","num_feature":"3","num_nodes":"27","size_leaf_vector":"1"}},{"base_weights":[3.4963304E-1,-5.757437E-1,1.6294072E0,2.042553E0,-5.858315E-1,2.9157815E0,-4.3952492E-1,7.941176E-1,-1.1886793E-1,-1.7993009E-1,-1.2934633E-1,2.966536E0,2.106537E-1,8.1967205E-1,-5.519921E-1,1.5974025E0,-1.771777E-1,8.968487E-1,1.7528867E0,-4.9640286E-1,1.4705881E0,-1.7647061E-1,2.245033E0,-5.777439E-1,1.7321013E-1,2.2436974E0,-1.4318182E-1,8.5185176E-1,7.9615384E-1,-2.3076925E-1,-1.6513762E-1,1.8749999E0,-1.0465116E-1,-5.16129E-1,1.3902438E0,6.666666E-1,2.6033056E0,-3.2423925E-1,-1.7970201E-1,7.088495E-1,-1.7041421E-1,1.8947369E-1,7.0183486E-1,5.056179E-2,6.39759E-1,4.736842E-2,-1.2413794E-1,2.4827586E-1,6.545454E-1,-1.7362204E-1,2.6470581E-2,-1.0465116E-1,5.6938773E-1,5.232558E-1,-1.0843379E-2,4.1538462E-1,8.287129E-1,-1.5233853E-1,6.041096E-1],"categories":[],"categories_nodes":[],"categories_segments":[],"categories_sizes":[],"default_left":[0,0,0,0,0,0,0,0,0,0,0,0,0,0,0,0,0,0,0,0,0,0,0,0,0,0,0,0,0,0,0,0,0,0,0,0,0,0,0,0,0,0,0,0,0,0,0,0,0,0,0,0,0,0,0,0,0,0,0],"id":5,"left_children":[1,3,5,7,9,11,13,-1,-1,-1,15,17,19,21,23,25,-1,-1,27,29,31,33,35,37,39,41,-1,43,-1,45,-1,47,-1,49,51,53,55,57,-1,-1,-1,-1,-1,-1,-1,-1,-1,-1,-1,-1,-1,-1,-1,-1,-1,-1,-1,-1,-1],"loss_changes":[5.4339893E3,7.154028E1,5.1257E3,1.644662E1,1.6804016E1,1.6240234E2,1.0511629E2,0E0,0E0,0E0,6.4571396E1,2.7234375E1,2.1169947E1,8.700781E1,1.2781601E1,2.4014328E1,0E0,0E0,1.7267517E1,9.4738245E-2,6.9083443E0,2.0318323E1,1.2495857E1,3.341751E0,4.038613E1,5.6347656E-1,0E0,1.1454484E1,0E0,3.7358645E-1,0E0,4.796219E-1,0E0,1.224102E0,6.6956253E0,4.606799E0,8.46405E-2,2.3743237E1,0E0,0E0,0E0,0E0,0E0,0E0,0E0,0E0,0E0,0E0,0E0,0E0,0E0,0E0,0E0,0E0,0E0,0E0,0E0,0E0,0E0],"parents":[2147483647,0,0,1,1,2,2,3,3,4,4,5,5,6,6,10,10,11,11,12,12,13,13,14,14,15,15,18,18,19,19,20,20,21,21,22,22,23,23,24,24,25,25,27,27,29,29,31,31,33,33,34,34,35,35,36,36,37,37],"right_children":[2,4,6,8,10,12,14,-1,-1,-1,16,18,20,22,24,26,-1,-1,28,30,32,34,36,38,40,42,-1,44,-1,46,-1,48,-1,50,52,54,56,58,-1,-1,-1,-1,-1,-1,-1,-1,-1,-1,-1,-1,-1,-1,-1,-1,-1,-1,-1,-1,-1],"split_conditions":[3.632E1,-1.2072E2,4E0,3.7E0,3.542E1,-1.1937E2,4.125E0,7.941176E-1,-1.1886793E-1,-1.7993009E-1,-1.1961E2,3.9375E0,3.66E1,3.803E1,3.876E1,3.7464E0,-1.771777E-1,8.968487E-1,3.781E1,-1.1931E2,-1.1844E2,-1.2135E2,-1.2261E2,4.2578E0,4.3542E0,1.6071E0,-1.4318182E-1,-1.2181E2,7.9615384E-1,2.6607E0,-1.6513762E-1,3.68E1,-1.0465116E-1,3.797E1,3.641E1,4.0282E0,-1.2202E2,3.855E1,-1.7970201E-1,7.088495E-1,-1.7041421E-1,1.8947369E-1,7.0183486E-1,5.056179E-2,6.39759E-1,4.736842E-2,-1.2413794E-1,2.4827586E-1,6.545454E-1,-1.7362204E-1,2.6470581E-2,-1.0465116E-1,5.6938773E-1,5.232558E-1,-1.0843379E-2,4.1538462E-1,8.287129E-1,-1.5233853E-1,6.041096E-1],"split_indices":[0,1,2,2,0,1,2,0,0,0,1,2,0,0,0,2,0,0,0,1,1,1,1,2,2,2,0,1,0,2,0,0,0,0,0,2,1,0,0,0,0,0,0,0,0,0,0,0,0,0,0,0,0,0,0,0,0,0,0],"split_type":[0,0,0,0,0,0,0,0,0,0,0,0,0,0,0,0,0,0,0,0,0,0,0,0,0,0,0,0,0,0,0,0,0,0,0,0,0,0,0,0,0,0,0,0,0,0,0,0,0,0,0,0,0,0,0,0,0,0,0],"sum_hessian":[4.586667E3,2.6622224E3,1.9244446E3,9.444445E0,2.6527778E3,1.1863889E3,7.380556E2,7.5000005E0,1.9444445E0,2.573889E3,7.888889E1,1.1644445E3,2.1944445E1,6.0000004E1,6.780556E2,1.6111113E1,6.2777782E1,1.1413889E3,2.3055557E1,1.4444445E1,7.5000005E0,3.5833336E1,2.4166668E1,6.5500006E2,2.3055557E1,1.2222223E1,3.888889E0,1.2500001E1,1.0555556E1,3.3333335E0,1.1111112E1,6.1111116E0,1.388889E0,3.0000002E1,5.8333335E0,5E0,1.9166668E1,5.1944447E1,6.030556E2,5.277778E0,1.7777779E1,1.1111112E0,1.1111112E1,8.888889E0,3.6111112E0,1.1111112E0,2.2222223E0,2.2222223E0,3.888889E0,2.7222223E1,2.777778E0,1.388889E0,4.4444447E0,1.388889E0,3.6111112E0,3.3333335E0,1.5833334E1,4.8888893E1,3.0555558E0],"tree_param":{"num_deleted":"0","num_feature":"3","num_nodes":"59","size_leaf_vector":"1"}},{"base_weights":[-5.2277707E-2,-5.6598854E-1,4.8692465E-1,-5.6855315E-1,-2.4112278E-1,-5.5786264E-1,1.2395095E0,-1.7159832E-1,-5.09579E-1,2.8282228E-1,-1.5802167E-1,3.8018695E-1,-5.7056713E-1,1.2809328E0,-1.6602108E-1,-4.1766086E-1,-1.6947207E-1,3.221697E-1,-2.8627047E-1,3.993498E-2,-1.715028E-1,1.2974379E0,-2.1520515E-1,2.8564236E-1,-5.400983E-1,3.492041E-2,-1.2982377E-1,8.0461824E-1,1.3414625E0,-1.5950704E-1,8.733024E-2,-9.4469194E-4,-1.6810381E-1,3.4597713E-1,-7.6876715E-2,4.0456638E-1,3.282245E-1,-5.6193132E-2,2.383423E-1],"categories":[],"categories_nodes":[],"categories_segments":[],"categories_sizes":[],"default_left":[0,0,0,0,0,0,0,0,0,0,0,0,0,0,0,0,0,0,0,0,0,0,0,0,0,0,0,0,0,0,0,0,0,0,0,0,0,0,0],"id":6,"left_children":[1,3,5,7,9,11,13,-1,15,17,-1,-1,19,21,-1,23,-1,-1,25,-1,-1,27,29,-1,31,-1,-1,33,35,-1,37,-1,-1,-1,-1,-1,-1,-1,-1],"loss_changes":[1.1769526E3,1.6756592E0,1.6307712E3,1.4648438E-1,2.9592216E0,2.0867035E1,9.023132E1,0E0,4.157791E-1,3.5830534E0,0E0,0E0,7.497864E-1,2.9380005E1,0E0,9.233591E0,0E0,0E0,3.4653425E-1,0E0,0E0,2.4213135E1,1.3597602E0,0E0,5.2402306E-1,0E0,0E0,3.6578167E1,3.9941406E-1,0E0,1.6775861E0,0E0,0E0,0E0,0E0,0E0,0E0,0E0,0E0],"parents":[2147483647,0,0,1,1,2,2,3,3,4,4,5,5,6,6,8,8,9,9,12,12,13,13,15,15,18,18,21,21,22,22,24,24,27,27,28,28,30,30],"right_children":[2,4,6,8,10,12,14,-1,16,18,-1,-1,20,22,-1,24,-1,-1,26,-1,-1,28,30,-1,32,-1,-1,34,36,-1,38,-1,-1,-1,-1,-1,-1,-1,-1],"split_conditions":[3.9625E0,3.9375E0,3.542E1,3.7644E0,-1.2181E2,-1.2059E2,9.281E0,-1.7159832E-1,-1.2059E2,3.773E1,-1.5802167E-1,3.8018695E-1,-1.2048E2,-1.1937E2,-1.6602108E-1,3.671E1,-1.6947207E-1,3.221697E-1,3.777E1,3.993498E-2,-1.715028E-1,4.125E0,4.4211E0,2.8564236E-1,3.713E1,3.492041E-2,-1.2982377E-1,-1.2179E2,3.876E1,-1.5950704E-1,3.641E1,-9.4469194E-4,-1.6810381E-1,3.4597713E-1,-7.6876715E-2,4.0456638E-1,3.282245E-1,-5.6193132E-2,2.383423E-1],"split_indices":[2,2,0,2,1,1,2,0,1,0,0,0,1,1,0,0,0,0,0,0,0,2,2,0,0,0,0,1,0,0,0,0,0,0,0,0,0,0,0],"split_type":[0,0,0,0,0,0,0,0,0,0,0,0,0,0,0,0,0,0,0,0,0,0,0,0,0,0,0,0,0,0,0,0,0,0,0,0,0,0,0],"sum_hessian":[4.2470215E3,2.1748965E3,2.072125E3,2.1571174E3,1.7779163E1,8.677361E2,1.204389E3,2.0299674E3,1.2715004E2,6.2760043E0,1.15031595E1,5.3157363E0,8.6242035E2,1.1774703E3,2.6918627E1,5.0989025E1,7.616102E1,2.2547357E0,4.021269E0,1.1695015E0,8.6125085E2,1.1647539E3,1.2716515E1,3.62761E0,4.7361416E1,1.1273679E0,2.8939009E0,9.709783E1,1.067656E3,5.8447847E0,6.8717294E0,1.7630322E0,4.559838E1,7.301543E1,2.4082401E1,1.0335736E3,3.4082417E1,5.4789367E0,1.3927928E0],"tree_param":{"num_deleted":"0","num_feature":"3","num_nodes":"39","size_leaf_vector":"1"}},{"base_weights":[1.7373602E-1,-5.526556E-1,6.0166633E-1,-1.7137584E-1,-1.7178036E-1,1.0471808E0,-5.670965E-1,1.3075837E0,-5.0670904E-1,1.3242618E0,-1.711936E-1,-1.715886E-1,3.735008E-1,8.0937594E-2,4.3059644E-1,1.832008E-1,-5.485317E-1,-2.0196106E-1,1.331421E0,-1.0232389E-1,1.5934904E-1,-1.691033E-1,-9.3934424E-2,3.591765E-1,-1.4637126E-1,9.231302E-1,1.3418121E0,-9.5717594E-2,5.9837986E-2,2.441162E-1,-9.504964E-2,3.8157672E-1,-1.3052791E-1,4.03788E-1,2.0217891E-1],"categories":[],"categories_nodes":[],"categories_segments":[],"categories_sizes":[],"default_left":[0,0,0,0,0,0,0,0,0,0,0,0,0,0,0,0,0,0,0,0,0,0,0,0,0,0,0,0,0,0,0,0,0,0,0],"id":7,"left_children":[1,3,5,-1,7,9,11,13,15,17,-1,-1,-1,-1,-1,19,21,23,25,-1,-1,-1,27,29,-1,31,33,-1,-1,-1,-1,-1,-1,-1,-1],"loss_changes":[1.425053E3,1.194104E1,1.5026628E3,0E0,4.057724E1,9.371565E2,7.7371826E0,1.6212063E0,2.0165882E0,1.9759277E1,0E0,0E0,0E0,0E0,0E0,1.0103426E0,3.7987137E-1,1.650872E0,6.2944336E0,0E0,0E0,0E0,2.767708E-1,1.3887168E0,0E0,2.294799E1,3.883545E0,0E0,0E0,0E0,0E0,0E0,0E0,0E0,0E0],"parents":[2147483647,0,0,1,1,2,2,4,4,5,5,6,6,7,7,8,8,9,9,15,15,16,16,17,17,18,18,22,22,23,23,25,25,26,26],"right_children":[2,4,6,-1,8,10,12,14,16,18,-1,-1,-1,-1,-1,20,22,24,26,-1,-1,-1,28,30,-1,32,34,-1,-1,-1,-1,-1,-1,-1,-1],"split_conditions":[3.3906E0,3.3021E0,3.641E1,-1.7137584E-1,3.372E1,5.6762E0,-1.1892E2,-1.1757E2,3.377E1,-1.2059E2,-1.711936E-1,-1.715886E-1,3.735008E-1,8.0937594E-2,4.3059644E-1,3.3571E0,-1.1734E2,3.529E1,3.4375E0,-1.0232389E-1,1.5934904E-1,-1.691033E-1,3.3427E0,3.7644E0,-1.4637126E-1,3.417E1,5.6345E0,-9.5717594E-2,5.9837986E-2,2.441162E-1,-9.504964E-2,3.8157672E-1,-1.3052791E-1,4.03788E-1,2.0217891E-1],"split_indices":[2,2,0,0,0,2,1,1,0,1,0,0,0,0,0,2,1,0,2,0,0,0,2,2,0,0,2,0,0,0,0,0,0,0,0],"split_type":[0,0,0,0,0,0,0,0,0,0,0,0,0,0,0,0,0,0,0,0,0,0,0,0,0,0,0,0,0,0,0,0,0,0,0],"sum_hessian":[4.5823794E3,1.698672E3,2.8837073E3,1.6191146E3,7.955736E1,2.087926E3,7.9578125E2,1.4150629E1,6.540673E1,1.7827759E3,3.0515018E2,7.9433276E2,1.4484458E0,1.891929E0,1.22587E1,3.54516E0,6.186157E1,8.196615E0,1.7745792E3,1.4221566E0,2.1230035E0,5.9634758E1,2.2268105E0,2.6804206E0,5.5161943E0,4.6272106E1,1.7283071E3,1.210505E0,1.0163053E0,1.4809351E0,1.1994854E0,3.6867943E1,9.404161E0,1.716631E3,1.167623E1],"tree_param":{"num_deleted":"0","num_feature":"3","num_nodes":"35","size_leaf_vector":"1"}},{"base_weights":[-2.816967E-1,-1.7164889E-1,8.045432E-1,1.2619289E0,-1.7095467E-1,1.3278221E0,-4.6829632E-1,-1.0691015E-1,1.3313949E0,8.985597E-2,-1.6407257E-1,8.1376386E-1,1.340843E0,6.0943026E-2,2.7444094E-1,4.0519968E-1,2.688259E-1],"categories":[],"categories_nodes":[],"categories_segments":[],"categories_sizes":[],"default_left":[0,0,0,0,0,0,0,0,0,0,0,0,0,0,0,0,0],"id":8,"left_children":[1,-1,3,5,-1,7,9,-1,11,-1,-1,13,15,-1,-1,-1,-1],"loss_changes":[1.2502184E3,0E0,5.2633435E2,7.218213E1,0E0,4.1141357E0,1.5983248E0,0E0,1.8620605E0,0E0,0E0,6.3890934E-1,1.3735352E0,0E0,0E0,0E0,0E0],"parents":[2147483647,0,0,2,2,3,3,5,5,6,6,8,8,11,11,12,12],"right_children":[2,-1,4,6,-1,8,10,-1,12,-1,-1,14,16,-1,-1,-1,-1],"split_conditions":[5.6345E0,-1.7164889E-1,3.641E1,1.05144E1,-1.7095467E-1,-1.2059E2,3.307E1,-1.0691015E-1,5.6762E0,8.985597E-2,-1.6407257E-1,-1.1857E2,1.00765E1,6.0943026E-2,2.7444094E-1,4.0519968E-1,2.688259E-1],"split_indices":[2,0,0,2,0,1,0,0,2,0,0,1,2,0,0,0,0],"split_type":[0,0,0,0,0,0,0,0,0,0,0,0,0,0,0,0,0],"sum_hessian":[3.9599968E3,3.124865E3,8.35132E2,6.2666516E2,2.0846686E2,6.0389905E2,2.2766094E1,1.0693343E0,6.028297E2,1.8534176E0,2.0912676E1,1.2367751E1,5.90462E2,2.1833625E0,1.0184388E1,5.757103E2,1.4751629E1],"tree_param":{"num_deleted":"0","num_feature":"3","num_nodes":"17","size_leaf_vector":"1"}},{"base_weights":[2.5906488E-1,8.349141E-1,-5.609005E-1,1.3181547E0,-5.559898E-1,-9.8287754E-2,-5.6770295E-1,-1.5179947E-1,1.3248801E0,-1.714085E-1,6.1246765E-1,-1.5985611E-1,2.9380262E-1,-4.8123208E-1,-1.7150465E-1,1.343472E0,1.0447725E0,8.694354E-1,-1.11047775E-1,4.4709915E-1,-1.5532061E-1,-1.6797435E-1,-3.9147455E-1,4.066664E-1,1.083203E0,-2.2917712E-1,4.0152404E-1,1.6176662E-1,3.966075E-1,9.8712265E-1,-1.6756764E-1,-1.4533798E-1,3.7984484E-1,2.849287E-1,-1.1975529E-1,1.4651524E-1,-1.12049274E-1,2.365379E-2,3.8419935E-1],"categories":[],"categories_nodes":[],"categories_segments":[],"categories_sizes":[],"default_left":[0,0,0,0,0,0,0,0,0,0,0,0,0,0,0,0,0,0,0,0,0,0,0,0,0,0,0,0,0,0,0,0,0,0,0,0,0,0,0],"id":9,"left_children":[1,3,5,7,9,11,13,-1,15,-1,17,-1,19,21,-1,23,25,27,-1,-1,-1,-1,29,-1,31,33,-1,35,-1,37,-1,-1,-1,-1,-1,-1,-1,-1,-1],"loss_changes":[2.229683E3,1.8651318E3,6.0753174E0,2.59292E1,1.3208893E1,5.1733704E0,3.8549805E-1,0E0,9.280518E0,0E0,2.7910082E0,0E0,1.6427155E1,4.2194748E-1,0E0,4.5705566E0,4.9759094E1,2.3645062E0,0E0,0E0,0E0,0E0,1.1085127E1,0E0,2.6475204E1,5.513446E0,0E0,9.3060565E-1,0E0,1.3133678E0,0E0,0E0,0E0,0E0,0E0,0E0,0E0,0E0,0E0],"parents":[2147483647,0,0,1,1,2,2,3,3,4,4,5,5,6,6,8,8,10,10,12,12,13,13,15,15,16,16,17,17,22,22,24,24,25,25,27,27,29,29],"right_children":[2,4,6,8,10,12,14,-1,16,-1,18,-1,20,22,-1,24,26,28,-1,-1,-1,-1,30,-1,32,34,-1,36,-1,38,-1,-1,-1,-1,-1,-1,-1,-1,-1],"split_conditions":[3.4028E0,3.655E1,3.4375E0,-1.2072E2,-1.1931E2,3.422E1,3.5417E0,-1.5179947E-1,3.542E1,-1.714085E-1,3.739E1,-1.5985611E-1,3.641E1,3.495E1,-1.7150465E-1,3.3021E0,-1.1961E2,-1.1921E2,-1.11047775E-1,4.4709915E-1,-1.5532061E-1,-1.6797435E-1,3.641E1,4.066664E-1,3.338E1,1.6071E0,4.0152404E-1,3.665E1,3.966075E-1,-1.2048E2,-1.6756764E-1,-1.4533798E-1,3.7984484E-1,2.849287E-1,-1.1975529E-1,1.4651524E-1,-1.12049274E-1,2.365379E-2,3.8419935E-1],"split_indices":[2,0,2,1,1,0,2,0,0,0,0,0,0,0,0,2,1,1,0,0,0,0,0,0,0,2,0,0,0,1,0,0,0,0,0,0,0,0,0],"split_type":[0,0,0,0,0,0,0,0,0,0,0,0,0,0,0,0,0,0,0,0,0,0,0,0,0,0,0,0,0,0,0,0,0,0,0,0,0,0,0],"sum_hessian":[4.720148E3,2.77282E3,1.9473276E3,2.0578984E3,7.1492163E2,2.8443295E1,1.9188844E3,7.2866488E0,2.0506118E3,7.061428E2,8.778791E0,1.3320626E1,1.5122669E1,8.978283E1,1.8291016E3,1.9194159E3,1.3119598E2,7.0502625E0,1.7285289E0,5.7736297E0,9.34904E0,4.5051846E1,4.4730988E1,1.8302417E3,8.9174225E1,2.4616743E1,1.0657925E2,3.2796414E0,3.770621E0,4.304771E0,4.0426216E1,9.146869E0,8.002736E1,2.52439E0,2.2092352E1,2.0911858E0,1.1884556E0,1.3612854E0,2.9434853E0],"tree_param":{"num_deleted":"0","num_feature":"3","num_nodes":"39","size_leaf_vector":"1"}},{"base_weights":[-5.1195204E-1,-5.6924427E-1,1.149645E0,-1.7148907E-1,-6.309308E-2,5.559118E-1,1.2901726E0,-1.5381888E-1,3.935325E-1,-4.3703791E-1,3.7494E-1,8.72445E-1,4.09892E-1,-1.4989609E-1,2.965586E-1,5.3488597E-2,-1.5573648E-1,3.7983194E-1,-1.6266808E-1,1.8618456E-1,-1.261969E-1,-1.2864062E-1,1.3738215E-1,-9.0209216E-2,1.6332479E-1,1.7193043E-1,-1.0091745E-1],"categories":[],"categories_nodes":[],"categories_segments":[],"categories_sizes":[],"default_left":[0,0,0,0,0,0,0,0,0,0,0,0,0,0,0,0,0,0,0,0,0,0,0,0,0,0,0],"id":10,"left_children":[1,3,5,-1,7,9,11,-1,13,15,-1,17,-1,19,-1,-1,-1,-1,21,23,-1,-1,25,-1,-1,-1,-1],"loss_changes":[3.5344122E2,4.2910156E0,9.616455E0,0E0,3.8841546E0,1.8088482E1,1.9689178E0,0E0,3.2083151E0,6.5897536E-1,0E0,7.576832E0,0E0,6.074496E-1,0E0,0E0,0E0,0E0,5.276525E-1,7.371214E-1,0E0,0E0,9.187164E-1,0E0,0E0,0E0,0E0],"parents":[2147483647,0,0,1,1,2,2,4,4,5,5,6,6,8,8,9,9,11,11,13,13,18,18,19,19,22,22],"right_children":[2,4,6,-1,8,10,12,-1,14,16,-1,18,-1,20,-1,-1,-1,-1,22,24,-1,-1,26,-1,-1,-1,-1],"split_conditions":[9.281E0,8.7471E0,3.392E1,-1.7148907E-1,3.444E1,1.05144E1,1.00765E1,-1.5381888E-1,-1.2201E2,-1.1837E2,3.7494E-1,-1.1861E2,4.09892E-1,3.756E1,2.965586E-1,5.3488597E-2,-1.5573648E-1,3.7983194E-1,3.414E1,3.741E1,-1.261969E-1,-1.2864062E-1,-1.1823E2,-9.0209216E-2,1.6332479E-1,1.7193043E-1,-1.0091745E-1],"split_indices":[2,2,0,0,0,2,2,0,1,1,0,1,0,0,0,0,0,0,0,0,0,0,1,0,0,0,0],"split_type":[0,0,0,0,0,0,0,0,0,0,0,0,0,0,0,0,0,0,0,0,0,0,0,0,0,0,0],"sum_hessian":[3.7048794E3,3.5820278E3,1.2285161E2,3.5650928E3,1.6935217E1,2.4460627E1,9.839098E1,8.471004E0,8.464213E0,1.0214254E1,1.4246372E1,1.7088747E1,8.130224E1,4.8147883E0,3.6494253E0,1.0642298E0,9.150024E0,1.2218718E1,4.870029E0,2.2876327E0,2.5271556E0,2.353477E0,2.516552E0,1.037773E0,1.2498597E0,1.2017117E0,1.3148403E0],"tree_param":{"num_deleted":"0","num_feature":"3","num_nodes":"27","size_leaf_vector":"1"}},{"base_weights":[2.578121E-1,-5.54867E-1,9.115825E-1,7.7675E-1,-5.66672E-1,1.299893E0,-4.9314407E-1,1.1126306E0,-1.3709766E-1,-1.7160916E-1,-2.9904118E-1,1.325616E0,-1.0930823E-1,-1.0572024E-2,-5.639163E-1,-9.412173E-2,1.2557261E0,9.6809185E-1,-1.6830146E-1,1.3467604E0,7.5524807E-1,-5.205951E-1,9.710226E-1,-3.7597138E-1,4.147103E-1,-1.7138992E-1,-3.3066338E-1,6.705678E-1,4.241124E-1,3.7845197E-1,-9.672427E-2,4.0477553E-1,1.0031385E0,1.8363053E-1,4.189586E-1,-1.6517374E-1,-2.9778698E-1,1.1770692E0,-9.78075E-2,-5.0841826E-1,2.9288486E-1,2.4170884E-1,-1.6120237E-1,3.1909359E-1,-9.334811E-2,-1.1847011E-1,3.4739286E-1,-1.2879422E-1,2.93761E-1,-1.3346444E-1,2.97936E-2,3.8959357E-1,1.04647405E-1,-1.6857657E-1,-5.9772816E-2,-1.4312685E-1,2.8898346E-1],"categories":[],"categories_nodes":[],"categories_segments":[],"categories_sizes":[],"default_left":[0,0,0,0,0,0,0,0,0,0,0,0,0,0,0,0,0,0,0,0,0,0,0,0,0,0,0,0,0,0,0,0,0,0,0,0,0,0,0,0,0,0,0,0,0,0,0,0,0,0,0,0,0,0,0,0,0],"id":11,"left_children":[1,3,5,7,9,11,13,15,-1,-1,17,19,21,23,25,-1,27,29,-1,31,33,35,37,39,-1,-1,41,43,-1,-1,-1,-1,45,47,-1,-1,49,51,-1,53,55,-1,-1,-1,-1,-1,-1,-1,-1,-1,-1,-1,-1,-1,-1,-1,-1],"loss_changes":[2.5059065E3,3.3497253E1,1.4263093E3,8.34066E0,2.8190308E0,7.437891E1,1.9350174E1,3.4856224E0,0E0,0E0,1.4823963E1,2.3239014E1,1.7227789E1,3.79329E1,6.622772E-1,0E0,3.430977E-1,3.336516E0,0E0,3.0566406E-1,2.693267E1,2.2495747E-2,3.2503653E0,5.377116E0,0E0,0E0,4.5521436E0,2.2107923E0,0E0,0E0,0E0,0E0,4.3209457E0,2.0105309E1,0E0,0E0,3.6476028E-1,5.008564E-1,0E0,7.089834E-1,5.822428E0,0E0,0E0,0E0,0E0,0E0,0E0,0E0,0E0,0E0,0E0,0E0,0E0,0E0,0E0,0E0,0E0],"parents":[2147483647,0,0,1,1,2,2,3,3,4,4,5,5,6,6,7,7,10,10,11,11,12,12,13,13,14,14,16,16,17,17,19,19,20,20,21,21,22,22,23,23,26,26,27,27,32,32,33,33,36,36,37,37,39,39,40,40],"right_children":[2,4,6,8,10,12,14,16,-1,-1,18,20,22,24,26,-1,28,30,-1,32,34,36,38,40,-1,-1,42,44,-1,-1,-1,-1,46,48,-1,-1,50,52,-1,54,56,-1,-1,-1,-1,-1,-1,-1,-1,-1,-1,-1,-1,-1,-1,-1,-1],"split_conditions":[3.615E1,-1.2066E2,4.0893E0,3.7E0,3.542E1,-1.1937E2,4.2813E0,3.529E1,-1.3709766E-1,-1.7160916E-1,-1.1996E2,3.9625E0,3.66E1,3.855E1,3.876E1,-9.412173E-2,3.535E1,3.7464E0,-1.6830146E-1,-1.195E2,-1.2182E2,3.641E1,-1.1844E2,3.811E1,4.147103E-1,-1.7138992E-1,4.3542E0,-1.2072E2,4.241124E-1,3.7845197E-1,-9.672427E-2,4.0477553E-1,3.641E1,3.794E1,4.189586E-1,-1.6517374E-1,2.5804E0,-1.1892E2,-9.78075E-2,-1.2122E2,-1.2197E2,2.4170884E-1,-1.6120237E-1,3.1909359E-1,-9.334811E-2,-1.1847011E-1,3.4739286E-1,-1.2879422E-1,2.93761E-1,-1.3346444E-1,2.97936E-2,3.8959357E-1,1.04647405E-1,-1.6857657E-1,-5.9772816E-2,-1.4312685E-1,2.8898346E-1],"split_indices":[0,1,2,2,0,1,2,0,0,0,1,2,0,0,0,0,0,2,0,1,1,0,1,0,0,0,2,1,0,0,0,0,0,0,0,0,2,1,0,1,1,0,0,0,0,0,0,0,0,0,0,0,0,0,0,0,0],"split_type":[0,0,0,0,0,0,0,0,0,0,0,0,0,0,0,0,0,0,0,0,0,0,0,0,0,0,0,0,0,0,0,0,0,0,0,0,0,0,0,0,0,0,0,0,0,0,0,0,0,0,0,0,0,0,0,0,0],"sum_hessian":[4.7145547E3,2.1019033E3,2.6126511E3,1.7900543E1,2.0840027E3,2.0468988E3,5.6575244E2,1.4147201E1,3.753343E0,2.0419807E3,4.202204E1,2.0102637E3,3.6635174E1,7.250628E1,4.9324615E2,1.1811402E0,1.2966061E1,6.73739E0,3.5284653E1,1.9370914E3,7.317226E1,2.6908936E1,9.726238E0,5.8017162E1,1.4489117E1,4.7670715E2,1.6538977E1,3.8713443E0,9.094716E0,5.5076256E0,1.2297646E0,1.9202428E3,1.6848562E1,3.9367573E1,3.3804684E1,2.2420624E1,4.488311E0,8.47277E0,1.2534677E0,4.862776E1,9.389399E0,2.0991385E0,1.4439837E1,2.7048848E0,1.1664594E0,1.5253816E0,1.5323181E1,2.2496016E1,1.687156E1,3.187324E0,1.3009864E0,6.8930135E0,1.5797567E0,4.075715E1,7.870616E0,4.504332E0,4.8850665E0],"tree_param":{"num_deleted":"0","num_feature":"3","num_nodes":"57","size_leaf_vector":"1"}},{"base_weights":[-4.5954663E-2,-5.4710656E-1,3.953161E-1,-5.5013657E-1,-1.9696043E-1,-1.6611645E-1,8.9608335E-1,-1.6622426E-1,-4.8338154E-1,2.669553E-1,-1.5051469E-1,9.2102426E-1,-1.5958194E-1,-3.8261744E-1,-1.6370907E-1,2.590421E-1,-2.546002E-1,9.363806E-1,-4.3064448E-1,7.3615956E-1,-5.156071E-1,4.138038E-2,-1.2829417E-1,5.460626E-1,9.6333945E-1,-1.59076E-1,9.032403E-2,2.4971674E-1,5.647311E-2,1.0088765E-2,-1.620223E-1,2.3569077E-1,-1.0088314E-1,2.48064E-1,2.9266164E-1],"categories":[],"categories_nodes":[],"categories_segments":[],"categories_sizes":[],"default_left":[0,0,0,0,0,0,0,0,0,0,0,0,0,0,0,0,0,0,0,0,0,0,0,0,0,0,0,0,0,0,0,0,0,0,0],"id":12,"left_children":[1,3,5,7,9,-1,11,-1,13,15,-1,17,-1,19,-1,-1,21,23,25,27,29,-1,-1,31,33,-1,-1,-1,-1,-1,-1,-1,-1,-1,-1],"loss_changes":[8.2569763E2,1.7463989E0,9.441281E2,1.8835449E-1,2.4746475E0,0E0,4.6795532E1,0E0,4.4739342E-1,2.4650826E0,0E0,2.6933838E1,0E0,6.8187823E0,0E0,0E0,3.7298432E-1,1.2775879E1,1.2560937E0,1.0745692E-1,5.4586315E-1,0E0,0E0,1.8016264E1,1.1595459E0,0E0,0E0,0E0,0E0,0E0,0E0,0E0,0E0,0E0,0E0],"parents":[2147483647,0,0,1,1,2,2,3,3,4,4,6,6,8,8,9,9,11,11,13,13,16,16,17,17,18,18,19,19,20,20,23,23,24,24],"right_children":[2,4,6,8,10,-1,12,-1,14,16,-1,18,-1,20,-1,-1,22,24,26,28,30,-1,-1,32,34,-1,-1,-1,-1,-1,-1,-1,-1,-1,-1],"split_conditions":[3.9625E0,3.9375E0,3.513E1,3.7644E0,-1.2181E2,-1.6611645E-1,9.281E0,-1.6622426E-1,-1.2059E2,3.773E1,-1.5051469E-1,-1.1931E2,-1.5958194E-1,3.671E1,-1.6370907E-1,2.590421E-1,-1.2251E2,4.0893E0,3.741E1,3.6E1,3.713E1,4.138038E-2,-1.2829417E-1,-1.2182E2,4.239E0,-1.59076E-1,9.032403E-2,2.4971674E-1,5.647311E-2,1.0088765E-2,-1.620223E-1,2.3569077E-1,-1.0088314E-1,2.48064E-1,2.9266164E-1],"split_indices":[2,2,0,2,1,0,2,0,1,0,0,1,0,0,0,0,1,2,0,0,0,0,0,1,2,0,0,0,0,0,0,0,0,0,0],"split_type":[0,0,0,0,0,0,0,0,0,0,0,0,0,0,0,0,0,0,0,0,0,0,0,0,0,0,0,0,0,0,0,0,0,0,0],"sum_hessian":[3.731783E3,1.7472212E3,1.9845616E3,1.731665E3,1.5556091E1,6.854375E2,1.2991243E3,1.6281624E3,1.0350272E2,6.2167034E0,9.339388E0,1.277173E3,2.1951212E1,4.2278423E1,6.1224297E1,2.5941377E0,3.6225657E0,1.2631298E3,1.4043237E1,4.009871E0,3.8268555E1,1.1704527E0,2.452113E0,8.297982E1,1.1801499E3,1.2602948E1,1.4402881E0,2.9692035E0,1.0406674E0,1.616099E0,3.6652454E1,6.534651E1,1.7633314E1,1.0249026E2,1.0776597E3],"tree_param":{"num_deleted":"0","num_feature":"3","num_nodes":"35","size_leaf_vector":"1"}},{"base_weights":[1.4818646E-1,-5.392997E-1,4.7850576E-1,-1.6594815E-1,-2.0204012E-1,7.8457755E-1,-5.484207E-1,9.2108464E-1,-5.255751E-1,9.5514446E-1,-1.6573913E-1,-1.6620713E-1,2.8149927E-1,3.1564584E-1,8.205444E-2,-1.6379936E-1,4.747723E-2,-1.7883751E-1,9.5965964E-1,2.9281312E-1,-1.3881736E-1,6.3979596E-1,9.6953565E-1,1.8613595E-1,-8.708422E-2,2.583787E-1,-1.2236847E-1,2.9242027E-1,1.63297E-1],"categories":[],"categories_nodes":[],"categories_segments":[],"categories_sizes":[],"default_left":[0,0,0,0,0,0,0,0,0,0,0,0,0,0,0,0,0,0,0,0,0,0,0,0,0,0,0,0,0],"id":13,"left_children":[1,3,5,-1,7,9,11,13,15,17,-1,-1,-1,-1,-1,-1,-1,19,21,23,-1,25,27,-1,-1,-1,-1,-1,-1],"loss_changes":[9.4680273E2,6.21402E0,8.855187E2,0E0,2.0467417E1,4.9535767E2,5.910904E0,7.8695107E-1,6.9157124E-1,1.0026001E1,0E0,0E0,0E0,0E0,0E0,0E0,0E0,1.2703724E0,5.436157E0,9.0553755E-1,0E0,1.4356997E1,3.5761719E0,0E0,0E0,0E0,0E0,0E0,0E0],"parents":[2147483647,0,0,1,1,2,2,4,4,5,5,6,6,7,7,8,8,9,9,17,17,18,18,19,19,21,21,22,22],"right_children":[2,4,6,-1,8,10,12,14,16,18,-1,-1,-1,-1,-1,-1,-1,20,22,24,-1,26,28,-1,-1,-1,-1,-1,-1],"split_conditions":[3.375E0,3.3021E0,3.641E1,-1.6594815E-1,3.364E1,5.6762E0,-1.1892E2,3.319E1,-1.1667E2,-1.2059E2,-1.6573913E-1,-1.6620713E-1,2.8149927E-1,3.1564584E-1,8.205444E-2,-1.6379936E-1,4.747723E-2,3.529E1,3.4375E0,3.7644E0,-1.3881736E-1,3.417E1,3.562E1,1.8613595E-1,-8.708422E-2,2.583787E-1,-1.2236847E-1,2.9242027E-1,1.63297E-1],"split_indices":[2,2,0,0,0,2,1,0,1,1,0,0,0,0,0,0,0,0,2,2,0,0,0,0,0,0,0,0,0],"split_type":[0,0,0,0,0,0,0,0,0,0,0,0,0,0,0,0,0,0,0,0,0,0,0,0,0,0,0,0,0],"sum_hessian":[4.167148E3,1.3522039E3,2.8149443E3,1.2982095E3,5.399439E1,2.1687825E3,6.4616187E2,1.1662399E1,4.233199E1,1.9236653E3,2.4511719E2,6.443609E2,1.801012E0,9.179665E0,2.4827347E0,4.1300117E1,1.0318719E0,7.4758677E0,1.9161893E3,2.7971814E0,4.6786866E0,5.936201E1,1.8568274E3,1.7498634E0,1.0473179E0,4.9150307E1,1.0211706E1,1.8331237E3,2.3703703E1],"tree_param":{"num_deleted":"0","num_feature":"3","num_nodes":"29","size_leaf_vector":"1"}},{"base_weights":[-2.5933945E-1,-1.6628753E-1,6.2416786E-1,9.186485E-1,-1.6543405E-1,9.584789E-1,-4.338224E-1,5.9137315E-1,9.6568424E-1,8.1041366E-2,-1.5739277E-1,7.188674E-1,2.756942E-1,9.728339E-1,6.505592E-1,-5.4951888E-3,2.505358E-1,-1.05561346E-1,1.4800036E-1,1.2161016E-1,2.9260862E-1,2.8430995E-1,-9.578018E-2],"categories":[],"categories_nodes":[],"categories_segments":[],"categories_sizes":[],"default_left":[0,0,0,0,0,0,0,0,0,0,0,0,0,0,0,0,0,0,0,0,0,0,0],"id":14,"left_children":[1,-1,3,5,-1,7,9,11,13,-1,-1,15,17,19,21,-1,-1,-1,-1,-1,-1,-1,-1],"loss_changes":[8.721394E2,0E0,2.9054416E2,3.6526794E1,0E0,1.1520996E0,1.4117875E0,4.1036892E-1,8.031616E-1,0E0,0E0,8.8500834E-1,9.8926914E-1,4.9578857E-1,5.247183E0,0E0,0E0,0E0,0E0,0E0,0E0,0E0,0E0],"parents":[2147483647,0,0,2,2,3,3,5,5,6,6,7,7,8,8,11,11,12,12,13,13,14,14],"right_children":[2,-1,4,6,-1,8,10,12,14,-1,-1,16,18,20,22,-1,-1,-1,-1,-1,-1,-1,-1],"split_conditions":[5.6345E0,-1.6628753E-1,3.641E1,1.05144E1,-1.6543405E-1,5.6762E0,3.307E1,-1.1794E2,1.00765E1,8.1041366E-2,-1.5739277E-1,3.384E1,-1.1787E2,-1.2042E2,3.39E1,-5.4951888E-3,2.505358E-1,-1.05561346E-1,1.4800036E-1,1.2161016E-1,2.9260862E-1,2.8430995E-1,-9.578018E-2],"split_indices":[2,0,0,2,0,2,0,1,2,0,0,0,1,1,0,0,0,0,0,0,0,0,0],"split_type":[0,0,0,0,0,0,0,0,0,0,0,0,0,0,0,0,0,0,0,0,0,0,0],"sum_hessian":[3.344428E3,2.5076428E3,8.3678516E2,6.693402E2,1.6744496E2,6.504749E2,1.8865269E1,1.4120446E1,6.363545E2,1.9301294E0,1.6935139E1,9.148429E0,4.972017E0,6.201961E2,1.6158377E1,1.360917E0,7.7875123E0,1.121479E0,3.8505378E0,3.4663725E0,6.1672974E2,1.2386231E1,3.7721457E0],"tree_param":{"num_deleted":"0","num_feature":"3","num_nodes":"23","size_leaf_vector":"1"}},{"base_weights":[2.181627E-1,6.4652854E-1,-5.4136056E-1,9.5493954E-1,-5.358651E-1,-8.1585E-2,-5.489532E-1,-1.4365208E-1,9.590673E-1,-1.6599631E-1,4.8263162E-1,-1.5295883E-1,2.4833834E-1,-4.481683E-1,-1.6610517E-1,9.7089803E-1,7.7686745E-1,6.718481E-1,-1.0472102E-1,9.9930525E-1,-1.4738385E-1,-1.6191992E-1,-3.4729463E-1,2.929289E-1,5.987463E-1,-3.053683E-1,9.497285E-1,1.3025017E-1,2.9563597E-1,3.280625E-1,9.904161E-2,8.3105254E-1,-1.6143537E-1,-1.7394683E-1,2.6445934E-1,-1.5040317E-1,-2.8588684E-2,1.7339775E-1,2.938194E-1,1.19219825E-1,-1.0350754E-1,2.5197212E-2,3.1238085E-1],"categories":[],"categories_nodes":[],"categories_segments":[],"categories_sizes":[],"default_left":[0,0,0,0,0,0,0,0,0,0,0,0,0,0,0,0,0,0,0,0,0,0,0,0,0,0,0,0,0,0,0,0,0,0,0,0,0,0,0,0,0,0,0],"id":15,"left_children":[1,3,5,7,9,11,13,-1,15,-1,17,-1,19,21,-1,23,25,27,-1,29,-1,-1,31,-1,33,35,37,39,-1,-1,-1,41,-1,-1,-1,-1,-1,-1,-1,-1,-1,-1,-1],"loss_changes":[1.4159636E3,1.0151637E3,5.4344177E0,1.3521973E1,1.0512222E1,3.895476E0,4.8797607E-1,0E0,3.9906006E0,0E0,1.8466587E0,0E0,9.232804E0,5.003557E-1,0E0,3.6622314E0,2.6334251E1,1.347183E0,0E0,1.5223408E-1,0E0,0E0,9.044916E0,0E0,1.1442709E1,7.7275276E-1,7.60582E-1,6.87906E-1,0E0,0E0,0E0,8.111708E-1,0E0,0E0,0E0,0E0,0E0,0E0,0E0,0E0,0E0,0E0,0E0],"parents":[2147483647,0,0,1,1,2,2,3,3,4,4,5,5,6,6,8,8,10,10,12,12,13,13,15,15,16,16,17,17,19,19,22,22,24,24,25,25,26,26,27,27,31,31],"right_children":[2,4,6,8,10,12,14,-1,16,-1,18,-1,20,22,-1,24,26,28,-1,30,-1,-1,32,-1,34,36,38,40,-1,-1,-1,42,-1,-1,-1,-1,-1,-1,-1,-1,-1,-1,-1],"split_conditions":[3.4028E0,3.655E1,3.4375E0,-1.2072E2,-1.1931E2,3.422E1,3.5417E0,-1.4365208E-1,3.542E1,-1.6599631E-1,3.739E1,-1.5295883E-1,3.641E1,3.495E1,-1.6610517E-1,3.375E0,-1.1967E2,-1.1921E2,-1.0472102E-1,-1.1766E2,-1.4738385E-1,-1.6191992E-1,3.641E1,2.929289E-1,3.383E1,-1.2006E2,-1.195E2,3.665E1,2.9563597E-1,3.280625E-1,9.904161E-2,-1.2048E2,-1.6143537E-1,-1.7394683E-1,2.6445934E-1,-1.5040317E-1,-2.8588684E-2,1.7339775E-1,2.938194E-1,1.19219825E-1,-1.0350754E-1,2.5197212E-2,3.1238085E-1],"split_indices":[2,0,2,1,1,0,2,0,0,0,0,0,0,0,0,2,1,1,0,1,0,0,0,0,0,1,1,0,0,0,0,1,0,0,0,0,0,0,0,0,0,0,0],"split_type":[0,0,0,0,0,0,0,0,0,0,0,0,0,0,0,0,0,0,0,0,0,0,0,0,0,0,0,0,0,0,0,0,0,0,0,0,0,0,0,0,0,0,0],"sum_hessian":[4.349997E3,2.7814355E3,1.5685616E3,2.2061772E3,5.7525836E2,2.567296E1,1.5428887E3,6.003059E0,2.200174E3,5.660142E2,9.244138E0,1.0933998E1,1.4738961E1,7.346579E1,1.4694229E3,2.061957E3,1.3821706E2,7.6874123E0,1.5567259E0,7.1391525E0,7.599809E0,3.622928E1,3.723651E1,2.0301572E3,3.1799845E1,1.8930687E1,1.1928637E2,3.337999E0,4.3494134E0,5.7019777E0,1.4371746E0,4.7221026E0,3.251441E1,5.9502864E0,2.5849558E1,9.076628E0,9.854059E0,1.0330755E1,1.0895561E2,2.241769E0,1.0962299E0,1.3443036E0,3.377799E0],"tree_param":{"num_deleted":"0","num_feature":"3","num_nodes":"43","size_leaf_vector":"1"}},{"base_weights":[-4.8975924E-1,-5.5078834E-1,8.477246E-1,-1.6609037E-1,-2.2615809E-2,4.3293008E-1,9.384923E-1,-1.4567718E-1,3.611771E-1,-4.0556088E-1,2.7026886E-1,6.6601336E-1,9.862372E-1,6.4057654E-1,-1.2202448E-1,5.6331273E-2,-1.4922401E-1,2.79305E-1,-1.3662978E-1,2.9867756E-1,1.1330027E-1,1.8028891E-1,3.0221942E-1,1.4763069E-1,-1.19879335E-1,-1.0313454E-2,9.813296E-2,-1.0555747E-1,2.012314E-1],"categories":[],"categories_nodes":[],"categories_segments":[],"categories_sizes":[],"default_left":[0,0,0,0,0,0,0,0,0,0,0,0,0,0,0,0,0,0,0,0,0,0,0,0,0,0,0,0,0],"id":16,"left_children":[1,3,5,-1,7,9,11,-1,13,15,-1,17,19,21,-1,-1,-1,-1,23,-1,-1,25,-1,27,-1,-1,-1,-1,-1],"loss_changes":[2.4603302E2,4.3135986E0,4.551384E0,0E0,3.1013777E0,1.03702545E1,7.375107E-1,0E0,2.31537E0,6.28726E-1,0E0,4.1813965E0,1.3135529E-1,1.0695834E0,0E0,0E0,0E0,0E0,4.7782815E-1,0E0,0E0,1.5321653E-1,0E0,1.1303873E0,0E0,0E0,0E0,0E0,0E0],"parents":[2147483647,0,0,1,1,2,2,4,4,5,5,6,6,8,8,9,9,11,11,12,12,13,13,18,18,21,21,23,23],"right_children":[2,4,6,-1,8,10,12,-1,14,16,-1,18,20,22,-1,-1,-1,-1,24,-1,-1,26,-1,28,-1,-1,-1,-1,-1],"split_conditions":[9.281E0,8.7471E0,3.392E1,-1.6609037E-1,3.444E1,1.05144E1,1.00765E1,-1.4567718E-1,3.782E1,-1.1837E2,2.7026886E-1,-1.1861E2,-1.1798E2,-1.22E2,-1.2202448E-1,5.6331273E-2,-1.4922401E-1,2.79305E-1,-1.1839E2,2.9867756E-1,1.1330027E-1,3.741E1,3.0221942E-1,3.413E1,-1.19879335E-1,-1.0313454E-2,9.813296E-2,-1.0555747E-1,2.012314E-1],"split_indices":[2,2,0,0,0,2,2,0,0,1,0,1,1,1,0,0,0,0,1,0,0,0,0,0,0,0,0,0,0],"split_type":[0,0,0,0,0,0,0,0,0,0,0,0,0,0,0,0,0,0,0,0,0,0,0,0,0,0,0,0,0],"sum_hessian":[3.0074524E3,2.8767742E3,1.3067833E2,2.861307E3,1.5467176E1,2.4497606E1,1.0618072E2,6.8901954E0,8.576981E0,8.822681E0,1.5674925E1,1.8060335E1,8.8120384E1,6.410456E0,2.1665244E0,1.0427366E0,7.7799454E0,1.34572935E1,4.6030426E0,8.616003E1,1.9603566E0,3.5044997E0,2.9059567E0,2.4227362E0,2.1803064E0,1.7344327E0,1.770067E0,1.406877E0,1.015859E0],"tree_param":{"num_deleted":"0","num_feature":"3","num_nodes":"29","size_leaf_vector":"1"}},{"base_weights":[2.1761961E-1,-5.351983E-1,6.983325E-1,5.920699E-1,-5.480983E-1,9.4029444E-1,-4.9180275E-1,8.218849E-1,-1.2979706E-1,-1.6623692E-1,-2.689783E-1,9.561306E-1,-9.010043E-2,-5.399744E-1,-4.1408795E-3,-8.7075114E-2,2.7498347E-1,7.016027E-1,-1.6251592E-1,9.721989E-1,4.6098024E-1,-4.941919E-1,7.0389664E-1,-5.4236025E-1,6.262454E-2,9.5059514E-1,-1.6093834E-1,2.640134E-1,-8.794081E-2,9.7508115E-1,7.7514416E-1,-1.963399E-1,8.520478E-1,-1.5856053E-1,-2.6645914E-1,8.3401203E-1,-9.029016E-2,-3.259086E-1,-1.6608298E-1,2.1542046E-2,3.0431592E-1,2.9349804E-1,2.5150877E-1,5.7876807E-2,2.8534475E-1,-1.6137151E-1,2.205802E-1,1.4534059E-1,3.0172414E-1,-1.2598702E-1,3.132477E-2,2.7077693E-1,8.5804254E-2,-1.5869857E-1,1.9111602E-1],"categories":[],"categories_nodes":[],"categories_segments":[],"categories_sizes":[],"default_left":[0,0,0,0,0,0,0,0,0,0,0,0,0,0,0,0,0,0,0,0,0,0,0,0,0,0,0,0,0,0,0,0,0,0,0,0,0,0,0,0,0,0,0,0,0,0,0,0,0,0,0,0,0,0,0],"id":17,"left_children":[1,3,5,7,9,11,13,15,-1,-1,17,19,21,23,25,-1,-1,27,-1,29,31,33,35,37,-1,39,-1,-1,-1,41,43,45,47,-1,49,51,-1,53,-1,-1,-1,-1,-1,-1,-1,-1,-1,-1,-1,-1,-1,-1,-1,-1,-1],"loss_changes":[1.5729688E3,2.4958801E1,7.642908E2,4.9824743E0,2.668335E0,3.606067E1,1.05409775E1,1.9930334E0,0E0,0E0,1.0265147E1,1.6828003E1,1.1347989E1,8.428421E-1,2.1528101E1,0E0,0E0,1.7893319E0,0E0,4.3811035E-1,1.8200119E1,4.1464806E-2,1.8168507E0,8.11676E-1,0E0,7.7729034E-1,0E0,0E0,0E0,9.741211E-2,3.4218044E0,8.980787E0,2.0082512E0,0E0,3.3254278E-1,1.5028E-1,0E0,4.7490973E0,0E0,0E0,0E0,0E0,0E0,0E0,0E0,0E0,0E0,0E0,0E0,0E0,0E0,0E0,0E0,0E0,0E0],"parents":[2147483647,0,0,1,1,2,2,3,3,4,4,5,5,6,6,7,7,10,10,11,11,12,12,13,13,14,14,17,17,19,19,20,20,21,21,22,22,23,23,25,25,29,29,30,30,31,31,32,32,34,34,35,35,37,37],"right_children":[2,4,6,8,10,12,14,16,-1,-1,18,20,22,24,26,-1,-1,28,-1,30,32,34,36,38,-1,40,-1,-1,-1,42,44,46,48,-1,50,52,-1,54,-1,-1,-1,-1,-1,-1,-1,-1,-1,-1,-1,-1,-1,-1,-1,-1,-1],"split_conditions":[3.615E1,-1.2066E2,4.125E0,3.7E0,3.542E1,-1.1937E2,3.861E1,3.529E1,-1.2979706E-1,-1.6623692E-1,-1.1996E2,4E0,3.66E1,-1.1898E2,4.3542E0,-8.7075114E-2,2.7498347E-1,3.7464E0,-1.6251592E-1,3.9375E0,3.797E1,3.641E1,-1.1844E2,4.2059E0,6.262454E-2,-1.2182E2,-1.6093834E-1,2.640134E-1,-8.794081E-2,-1.1967E2,3.761E1,-1.2135E2,3.828E1,-1.5856053E-1,2.5804E0,-1.1892E2,-9.029016E-2,3.832E1,-1.6608298E-1,2.1542046E-2,3.0431592E-1,2.9349804E-1,2.5150877E-1,5.7876807E-2,2.8534475E-1,-1.6137151E-1,2.205802E-1,1.4534059E-1,3.0172414E-1,-1.2598702E-1,3.132477E-2,2.7077693E-1,8.5804254E-2,-1.5869857E-1,1.9111602E-1],"split_indices":[0,1,2,2,0,1,0,0,0,0,1,2,0,1,2,0,0,2,0,2,0,0,1,2,0,1,0,0,0,1,0,1,0,0,2,1,0,0,0,0,0,0,0,0,0,0,0,0,0,0,0,0,0,0,0],"split_type":[0,0,0,0,0,0,0,0,0,0,0,0,0,0,0,0,0,0,0,0,0,0,0,0,0,0,0,0,0,0,0,0,0,0,0,0,0,0,0,0,0,0,0,0,0,0,0,0,0,0,0,0,0,0,0],"sum_hessian":[4.3445146E3,1.693034E3,2.6514807E3,1.8647259E1,1.6743868E3,2.2036704E3,4.4781018E2,1.5393021E1,3.2542372E0,1.6380449E3,3.634196E1,2.170386E3,3.3284607E1,4.0745422E2,4.035596E1,1.0461892E0,1.4346831E1,7.6272216E0,2.8714737E1,2.1012346E3,6.915121E1,2.2308605E1,1.0976001E1,4.0643472E2,1.0194896E0,1.416491E1,2.619105E1,6.564877E0,1.0623448E0,2.067052E3,3.4182644E1,2.598039E1,4.317082E1,1.8237455E1,4.07115E0,9.868232E0,1.1077687E0,2.1560816E1,3.8487393E2,1.1025017E0,1.3062408E1,2.0131067E3,5.3945377E1,8.421289E0,2.5761354E1,1.9319632E1,6.660758E0,1.3953178E1,2.921764E1,2.7858167E0,1.285333E0,8.195553E0,1.672679E0,1.8177813E1,3.383004E0],"tree_param":{"num_deleted":"0","num_feature":"3","num_nodes":"55","size_leaf_vector":"1"}},{"base_weights":[-4.172635E-2,-5.3249305E-1,3.4171474E-1,-5.360857E-1,-1.5943006E-1,-1.6202845E-1,7.30525E-1,-1.6217741E-1,-4.6066314E-1,2.4491344E-1,-1.4367959E-1,7.488686E-1,-1.539768E-1,-3.5025245E-1,-1.5912434E-1,6.006033E-1,-1.14851505E-1,7.6067656E-1,-4.0701938E-1,5.105672E-1,-1.5700677E-1,2.0981713E-1,3.983406E-2,4.0933734E-1,7.825598E-1,-1.5277162E-1,6.963916E-2,4.7716934E-2,2.8720856E-1,1.8641432E-1,-1.3671416E-1,2.3705545E-1,1.6527873E-1],"categories":[],"categories_nodes":[],"categories_segments":[],"categories_sizes":[],"default_left":[0,0,0,0,0,0,0,0,0,0,0,0,0,0,0,0,0,0,0,0,0,0,0,0,0,0,0,0,0,0,0,0,0],"id":18,"left_children":[1,3,5,7,9,-1,11,-1,13,15,-1,17,-1,19,-1,21,-1,23,25,27,-1,-1,-1,29,31,-1,-1,-1,-1,-1,-1,-1,-1],"loss_changes":[5.9447363E2,1.7716064E0,6.084568E2,2.171936E-1,2.0085576E0,0E0,2.8475647E1,0E0,4.6190643E-1,1.820498E0,0E0,1.6875793E1,0E0,5.5577602E0,0E0,1.3526773E-1,0E0,8.919983E0,9.62657E-1,8.6079395E-1,0E0,0E0,0E0,1.3593532E1,1.5609131E0,0E0,0E0,0E0,0E0,0E0,0E0,0E0,0E0],"parents":[2147483647,0,0,1,1,2,2,3,3,4,4,6,6,8,8,9,9,11,11,13,13,15,15,17,17,18,18,19,19,23,23,24,24],"right_children":[2,4,6,8,10,-1,12,-1,14,16,-1,18,-1,20,-1,22,-1,24,26,28,-1,-1,-1,30,32,-1,-1,-1,-1,-1,-1,-1,-1],"split_conditions":[3.9625E0,3.9375E0,3.513E1,3.7644E0,-1.2181E2,-1.6202845E-1,9.281E0,-1.6217741E-1,-1.2059E2,3.777E1,-1.4367959E-1,-1.1931E2,-1.539768E-1,3.713E1,-1.5912434E-1,3.773E1,-1.14851505E-1,4.0729E0,3.741E1,3.8594E0,-1.5700677E-1,2.0981713E-1,3.983406E-2,3.828E1,3.876E1,-1.5277162E-1,6.963916E-2,4.7716934E-2,2.8720856E-1,1.8641432E-1,-1.3671416E-1,2.3705545E-1,1.6527873E-1],"split_indices":[2,2,0,2,1,0,2,0,1,0,0,1,0,0,0,0,0,2,0,2,0,0,0,0,0,0,0,0,0,0,0,0,0],"split_type":[0,0,0,0,0,0,0,0,0,0,0,0,0,0,0,0,0,0,0,0,0,0,0,0,0,0,0,0,0,0,0,0,0],"sum_hessian":[3.1571E3,1.3845826E3,1.7725175E3,1.3709431E3,1.3639541E1,5.422721E2,1.2302454E3,1.2878423E3,8.31008E1,6.1234727E0,7.5160675E0,1.2127573E3,1.7488127E1,3.450447E1,4.859633E1,3.936349E0,2.1871238E0,1.2008322E3,1.1925174E1,5.450483E0,2.905399E1,2.841367E0,1.094982E0,7.156423E1,1.1292678E3,1.0456172E1,1.4690014E0,3.8094416E0,1.6410413E0,5.770187E1,1.3862357E1,1.090944E3,3.832385E1],"tree_param":{"num_deleted":"0","num_feature":"3","num_nodes":"33","size_leaf_vector":"1"}},{"base_weights":[1.3224253E-1,-5.2871263E-1,4.0867037E-1,-1.6183162E-1,-1.97209E-1,6.503208E-1,-5.3408194E-1,7.5766236E-1,-1.5713003E-1,7.770881E-1,-1.615658E-1,-1.6214637E-1,2.2836213E-1,2.720175E-1,4.131435E-2,2.9472756E-1,7.8587484E-1,9.12552E-1,-1.6923726E-1,2.6999125E-2,7.9042035E-1,1.5783313E-1,3.1486502E-1,-1.208683E-1,1.3485199E-1,1.1940236E-1,-1.3949291E-1,2.3864353E-1,9.5027685E-2],"categories":[],"categories_nodes":[],"categories_segments":[],"categories_sizes":[],"default_left":[0,0,0,0,0,0,0,0,0,0,0,0,0,0,0,0,0,0,0,0,0,0,0,0,0,0,0,0,0],"id":19,"left_children":[1,3,5,-1,7,9,11,13,-1,15,-1,-1,-1,-1,-1,17,19,21,23,25,27,-1,-1,-1,-1,-1,-1,-1,-1],"loss_changes":[6.575384E2,3.6676025E0,5.7839197E2,0E0,1.1261174E1,3.0486707E2,4.711487E0,7.334194E-1,0E0,7.50708E0,0E0,0E0,0E0,0E0,0E0,9.976482E0,6.1622314E0,2.3412514E-1,3.1322622E0,2.3222244E0,4.01709E0,0E0,0E0,0E0,0E0,0E0,0E0,0E0,0E0],"parents":[2147483647,0,0,1,1,2,2,4,4,5,5,6,6,7,7,9,9,15,15,16,16,17,17,18,18,19,19,20,20],"right_children":[2,4,6,-1,8,10,12,14,-1,16,-1,-1,-1,-1,-1,18,20,22,24,26,28,-1,-1,-1,-1,-1,-1,-1,-1],"split_conditions":[3.3571E0,3.3021E0,3.641E1,-1.6183162E-1,3.364E1,5.6762E0,-1.1892E2,3.319E1,-1.5713003E-1,3.4028E0,-1.615658E-1,-1.6214637E-1,2.2836213E-1,2.720175E-1,4.131435E-2,3.383E1,-1.2048E2,3.375E0,-1.18E2,3.529E1,3.615E1,1.5783313E-1,3.1486502E-1,-1.208683E-1,1.3485199E-1,1.1940236E-1,-1.3949291E-1,2.3864353E-1,9.5027685E-2],"split_indices":[2,2,0,0,0,2,1,0,0,2,0,0,0,0,0,0,1,2,1,0,0,0,0,0,0,0,0,0,0],"split_type":[0,0,0,0,0,0,0,0,0,0,0,0,0,0,0,0,0,0,0,0,0,0,0,0,0,0,0,0,0],"sum_hessian":[3.5966973E3,1.0603723E3,2.536325E3,1.0265306E3,3.3841618E1,2.0190924E3,5.172326E2,8.287729E0,2.5553886E1,1.8248578E3,1.9423466E2,5.15267E2,1.96556E0,6.308345E0,1.9793847E0,3.326508E1,1.7915927E3,1.3852272E1,1.9412806E1,1.0708722E1,1.7808839E3,4.8923373E0,8.959935E0,1.4344663E1,5.068143E0,6.213783E0,4.4949393E0,1.7613953E3,1.9488632E1],"tree_param":{"num_deleted":"0","num_feature":"3","num_nodes":"29","size_leaf_vector":"1"}},{"base_weights":[-2.4363936E-1,-1.6225795E-1,5.285304E-1,7.527394E-1,-1.611611E-1,7.824459E-1,-3.9954913E-1,4.943997E-1,7.887441E-1,7.581214E-2,-1.5159774E-1,5.9638318E-2,5.772537E-1,7.9506403E-1,5.20328E-1,1.7343256E-1,-1.2131197E-1,2.266706E-1,7.346463E-2,2.3883273E-1,3.3438444E-2,-1.5081266E-1,2.1272191E-1],"categories":[],"categories_nodes":[],"categories_segments":[],"categories_sizes":[],"default_left":[0,0,0,0,0,0,0,0,0,0,0,0,0,0,0,0,0,0,0,0,0,0,0],"id":20,"left_children":[1,-1,3,5,-1,7,9,11,13,-1,-1,15,17,19,21,-1,-1,-1,-1,-1,-1,-1,-1],"loss_changes":[6.314492E2,0E0,1.8316464E2,2.195758E1,0E0,7.289429E-1,1.2698185E0,5.3749156E-1,6.0739136E-1,0E0,0E0,1.1134704E0,5.9850645E-1,3.300476E-1,3.5888028E0,0E0,0E0,0E0,0E0,0E0,0E0,0E0,0E0],"parents":[2147483647,0,0,2,2,3,3,5,5,6,6,7,7,8,8,11,11,12,12,13,13,14,14],"right_children":[2,-1,4,6,-1,8,10,12,14,-1,-1,16,18,20,22,-1,-1,-1,-1,-1,-1,-1,-1],"split_conditions":[5.6345E0,-1.6225795E-1,3.641E1,1.05144E1,-1.611611E-1,5.6762E0,3.307E1,-1.1857E2,1.00765E1,7.581214E-2,-1.5159774E-1,-1.187E2,-1.1794E2,3.6E1,-1.1837E2,1.7343256E-1,-1.2131197E-1,2.266706E-1,7.346463E-2,2.3883273E-1,3.3438444E-2,-1.5081266E-1,2.1272191E-1],"split_indices":[2,0,0,2,0,2,0,1,2,0,0,1,1,0,1,0,0,0,0,0,0,0,0],"split_type":[0,0,0,0,0,0,0,0,0,0,0,0,0,0,0,0,0,0,0,0,0,0,0],"sum_hessian":[2.7491108E3,1.9852544E3,7.6385657E2,6.3133093E2,1.325256E2,6.157769E2,1.555402E1,1.4877037E1,6.008999E2,1.9765916E0,1.3577429E1,2.6566334E0,1.2220404E1,5.8516003E2,1.5739837E1,1.1385572E0,1.5180762E0,7.1247582E0,5.0956454E0,5.841025E2,1.0575576E0,2.1925163E0,1.354732E1],"tree_param":{"num_deleted":"0","num_feature":"3","num_nodes":"23","size_leaf_vector":"1"}},{"base_weights":[1.9328627E-1,5.469034E-1,-5.2605915E-1,7.8107923E-1,-5.199259E-1,-7.035087E-2,-5.3439695E-1,-1.3598363E-1,7.842122E-1,-1.6189432E-1,3.99881E-1,-1.469995E-1,2.2127415E-1,-4.1680017E-1,-1.620135E-1,7.933427E-1,5.9450245E-1,5.532455E-1,-9.864307E-2,7.7186215E-1,-1.3997088E-1,-1.5692246E-1,-3.042763E-1,8.004338E-1,5.694339E-1,-4.6846765E-1,6.9697654E-1,1.06352895E-1,2.4199937E-1,6.815035E-2,2.567021E-1,7.164927E-1,-1.5633716E-1,1.3039204E-1,2.4040663E-1,-1.3067628E-1,2.2286065E-1,-1.674677E-1,1.9651337E-3,1.166795E-1,2.259496E-1,9.892811E-2,-9.546776E-2,2.7839996E-2,2.6166892E-1],"categories":[],"categories_nodes":[],"categories_segments":[],"categories_sizes":[],"default_left":[0,0,0,0,0,0,0,0,0,0,0,0,0,0,0,0,0,0,0,0,0,0,0,0,0,0,0,0,0,0,0,0,0,0,0,0,0,0,0,0,0,0,0,0,0],"id":21,"left_children":[1,3,5,7,9,11,13,-1,15,-1,17,-1,19,21,-1,23,25,27,-1,29,-1,-1,31,33,35,37,39,41,-1,-1,-1,43,-1,-1,-1,-1,-1,-1,-1,-1,-1,-1,-1,-1,-1],"loss_changes":[9.629997E2,6.3442096E2,4.703644E0,8.404907E0,8.513145E0,2.9931467E0,5.886841E-1,0E0,3.125122E0,0E0,1.3191065E0,0E0,5.8879867E0,5.6470966E-1,0E0,2.6850586E0,1.1147526E1,9.0846825E-1,0E0,1.9291306E-1,0E0,0E0,7.410633E0,2.972412E-1,1.1512255E1,4.0157986E-1,1.2823181E0,5.155403E-1,0E0,0E0,0E0,5.010247E-1,0E0,0E0,0E0,0E0,0E0,0E0,0E0,0E0,0E0,0E0,0E0,0E0,0E0],"parents":[2147483647,0,0,1,1,2,2,3,3,4,4,5,5,6,6,8,8,10,10,12,12,13,13,15,15,16,16,17,17,19,19,22,22,23,23,24,24,25,25,26,26,27,27,31,31],"right_children":[2,4,6,8,10,12,14,-1,16,-1,18,-1,20,22,-1,24,26,28,-1,30,-1,-1,32,34,36,38,40,42,-1,-1,-1,44,-1,-1,-1,-1,-1,-1,-1,-1,-1,-1,-1,-1,-1],"split_conditions":[3.4028E0,3.655E1,3.4375E0,-1.2072E2,-1.1931E2,3.422E1,3.5417E0,-1.3598363E-1,3.3021E0,-1.6189432E-1,3.739E1,-1.469995E-1,3.641E1,3.495E1,-1.620135E-1,3.615E1,3.338E1,-1.1921E2,-9.864307E-2,3.451E1,-1.3997088E-1,-1.5692246E-1,3.641E1,-1.2066E2,-1.1967E2,3.319E1,3.383E1,3.665E1,2.4199937E-1,6.815035E-2,2.567021E-1,-1.2048E2,-1.5633716E-1,1.3039204E-1,2.4040663E-1,-1.3067628E-1,2.2286065E-1,-1.674677E-1,1.9651337E-3,1.166795E-1,2.259496E-1,9.892811E-2,-9.546776E-2,2.7839996E-2,2.6166892E-1],"split_indices":[2,0,2,1,1,0,2,0,2,0,0,0,0,0,0,0,0,1,0,0,0,0,0,1,1,0,0,0,0,0,0,1,0,0,0,0,0,0,0,0,0,0,0,0,0],"split_type":[0,0,0,0,0,0,0,0,0,0,0,0,0,0,0,0,0,0,0,0,0,0,0,0,0,0,0,0,0,0,0,0,0,0,0,0,0,0,0,0,0,0,0,0,0],"sum_hessian":[3.783649E3,2.5368296E3,1.2468195E3,2.0804297E3,4.5639984E2,2.257191E1,1.2242476E3,4.903225E0,2.0755264E3,4.472241E2,9.175742E0,8.97569E0,1.3596221E1,5.953203E1,1.1647156E3,1.9771844E3,9.8341995E1,7.7792463E0,1.3964958E0,7.4837046E0,6.1125164E0,2.8739784E1,3.0792242E1,1.9139945E3,6.318992E1,8.332882E0,9.000911E1,3.328777E0,4.4504695E0,1.4927455E0,5.9909587E0,4.9915104E0,2.580073E1,5.9979277E0,1.9079966E3,9.077283E0,5.4112637E1,6.861236E0,1.4716456E0,1.5107399E1,7.490171E1,2.327436E0,1.0013411E0,1.3162185E0,3.675292E0],"tree_param":{"num_deleted":"0","num_feature":"3","num_nodes":"45","size_leaf_vector":"1"}},{"base_weights":[-4.7269437E-1,-5.365495E-1,6.958341E-1,-5.400202E-1,2.271969E-2,7.705819E-1,3.715896E-1,-1.6227102E-1,-4.0511268E-1,-1.3802679E-1,3.538175E-1,-4.191555E-2,2.3679434E-1,-4.0986097E-1,7.280315E-1,-1.4919761E-1,-1.9201247E-1,5.8434945E-1,-1.1323089E-1,-2.063831E-2,-1.4702947E-1,2.2719215E-1,7.150811E-2,1.7539701E-1,-1.3532823E-1,1.059231E-1,2.4647519E-1,8.636219E-3,4.457399E-2],"categories":[],"categories_nodes":[],"categories_segments":[],"categories_sizes":[],"default_left":[0,0,0,0,0,0,0,0,0,0,0,0,0,0,0,0,0,0,0,0,0,0,0,0,0,0,0,0,0],"id":22,"left_children":[1,3,5,7,9,11,13,-1,15,-1,17,-1,-1,19,21,-1,23,25,-1,-1,-1,-1,-1,-1,-1,27,-1,-1,-1],"loss_changes":[1.7977875E2,4.4385376E0,2.743618E0,5.0842285E-2,2.5644417E0,1.826828E0,7.3599744E0,0E0,2.7242804E-1,0E0,1.818225E0,0E0,0E0,2.0112073E-1,7.423878E-2,0E0,1.7293884E0,7.753608E-1,0E0,0E0,0E0,0E0,0E0,0E0,0E0,7.7876337E-3,0E0,0E0,0E0],"parents":[2147483647,0,0,1,1,2,2,3,3,4,4,5,5,6,6,8,8,10,10,13,13,14,14,16,16,17,17,25,25],"right_children":[2,4,6,8,10,12,14,-1,16,-1,18,-1,-1,20,22,-1,24,26,-1,-1,-1,-1,-1,-1,-1,28,-1,-1,-1],"split_conditions":[9.281E0,8.7471E0,-1.1811E2,8.1988E0,3.444E1,3.378E1,1.05144E1,-1.6227102E-1,3.538E1,-1.3802679E-1,3.782E1,-4.191555E-2,2.3679434E-1,-1.1798E2,-1.1722E2,-1.4919761E-1,3.726E1,-1.2201E2,-1.1323089E-1,-2.063831E-2,-1.4702947E-1,2.2719215E-1,7.150811E-2,1.7539701E-1,-1.3532823E-1,3.746E1,2.4647519E-1,8.636219E-3,4.457399E-2],"split_indices":[2,2,1,2,0,0,2,0,0,0,0,0,0,1,1,0,0,1,0,0,0,0,0,0,0,0,0,0,0],"split_type":[0,0,0,0,0,0,0,0,0,0,0,0,0,0,0,0,0,0,0,0,0,0,0,0,0,0,0,0,0],"sum_hessian":[2.4033633E3,2.2793472E3,1.2401591E2,2.2653235E3,1.40237665E1,9.966393E1,2.4351974E1,2.2476003E3,1.7723188E1,5.546393E0,8.477373E0,1.8793433E0,9.778459E1,7.581248E0,1.6770725E1,1.1439379E1,6.283809E0,6.59816E0,1.8792136E0,1.7975866E0,5.7836614E0,1.5308903E1,1.4618225E0,1.2574881E0,5.026321E0,2.6667225E0,3.9314373E0,1.5459914E0,1.1207311E0],"tree_param":{"num_deleted":"0","num_feature":"3","num_nodes":"29","size_leaf_vector":"1"}},{"base_weights":[1.93275E-1,-5.201105E-1,5.870019E-1,4.728444E-1,-5.339772E-1,7.7021927E-1,-4.6869117E-1,6.4876306E-1,-1.2250008E-1,-1.6218366E-1,-2.4967478E-1,7.825165E-1,-7.591518E-2,-5.232852E-1,2.7737478E-2,2.3785137E-1,2.434702E-1,5.380972E-1,-1.578842E-1,7.947468E-1,3.49308E-1,-4.6970397E-1,5.5273634E-1,-3.2483912E-1,-1.6184023E-1,7.8709334E-1,-1.5560889E-1,1.9904627E-1,-1.1532996E-1,1.9237708E-1,-6.25973E-4,7.9860514E-1,6.1202747E-1,-1.4630614E-1,7.688754E-1,-1.5299883E-1,-2.326896E-1,6.744137E-1,-2.5661953E-2,-1.5642107E-1,2.3026821E-1,2.6767522E-1,3.1258458E-1,1.985975E-1,2.4045391E-1,6.874231E-2,2.6952413E-1,-1.2572995E-1,1.8920979E-1,7.111818E-2,2.5370198E-1,-1.18423484E-1,3.455161E-2,9.152518E-2,2.4454568E-1,-8.231451E-2,3.0312294E-1,-9.059961E-2,1.7667988E-1],"categories":[],"categories_nodes":[],"categories_segments":[],"categories_sizes":[],"default_left":[0,0,0,0,0,0,0,0,0,0,0,0,0,0,0,0,0,0,0,0,0,0,0,0,0,0,0,0,0,0,0,0,0,0,0,0,0,0,0,0,0,0,0,0,0,0,0,0,0,0,0,0,0,0,0,0,0,0,0],"id":23,"left_children":[1,3,5,7,9,11,13,15,-1,-1,17,19,21,23,25,27,-1,29,-1,31,33,35,37,39,-1,41,-1,-1,-1,-1,-1,43,45,47,49,-1,51,53,-1,-1,55,-1,57,-1,-1,-1,-1,-1,-1,-1,-1,-1,-1,-1,-1,-1,-1,-1,-1],"loss_changes":[1.0627133E3,1.8781372E1,4.7187274E2,3.2201672E0,2.3693542E0,2.1677124E1,9.801865E0,8.959298E-1,0E0,0E0,7.285578E0,1.0572998E1,7.8530955E0,8.697128E-1,1.5648736E1,1.8532166E0,0E0,4.9426413E-1,0E0,9.147949E-1,1.2176182E1,6.660032E-2,1.0108776E0,3.071334E0,0E0,5.078621E-1,0E0,0E0,0E0,0E0,0E0,2.4267578E-1,4.778015E0,6.0799155E0,1.0892105E0,0E0,3.0804604E-1,2.9296875E-1,0E0,0E0,3.3349605E0,0E0,9.250855E-1,0E0,0E0,0E0,0E0,0E0,0E0,0E0,0E0,0E0,0E0,0E0,0E0,0E0,0E0,0E0,0E0],"parents":[2147483647,0,0,1,1,2,2,3,3,4,4,5,5,6,6,7,7,10,10,11,11,12,12,13,13,14,14,15,15,17,17,19,19,20,20,21,21,22,22,23,23,25,25,31,31,32,32,33,33,34,34,36,36,37,37,40,40,42,42],"right_children":[2,4,6,8,10,12,14,16,-1,-1,18,20,22,24,26,28,-1,30,-1,32,34,36,38,40,-1,42,-1,-1,-1,-1,-1,44,46,48,50,-1,52,54,-1,-1,56,-1,58,-1,-1,-1,-1,-1,-1,-1,-1,-1,-1,-1,-1,-1,-1,-1,-1],"split_conditions":[3.615E1,-1.2066E2,4.125E0,3.7E0,3.542E1,-1.1937E2,3.861E1,3.535E1,-1.2250008E-1,-1.6218366E-1,-1.1996E2,4.0156E0,3.66E1,4.239E0,4.3542E0,-1.2072E2,2.434702E-1,3.3182E0,-1.578842E-1,3.9375E0,-1.2179E2,3.641E1,-1.1857E2,-1.2149E2,-1.6184023E-1,4.2813E0,-1.5560889E-1,1.9904627E-1,-1.1532996E-1,1.9237708E-1,-6.25973E-4,3.655E1,3.781E1,3.828E1,3.734E1,-1.5299883E-1,2.5804E0,3.68E1,-2.5661953E-2,-1.5642107E-1,3.805E1,2.6767522E-1,3.876E1,1.985975E-1,2.4045391E-1,6.874231E-2,2.6952413E-1,-1.2572995E-1,1.8920979E-1,7.111818E-2,2.5370198E-1,-1.18423484E-1,3.455161E-2,9.152518E-2,2.4454568E-1,-8.231451E-2,3.0312294E-1,-9.059961E-2,1.7667988E-1],"split_indices":[0,1,2,2,0,1,0,0,0,0,1,2,0,2,2,1,0,2,0,2,1,0,1,1,0,2,0,0,0,0,0,0,0,0,0,0,2,0,0,0,0,0,0,0,0,0,0,0,0,0,0,0,0,0,0,0,0,0,0],"split_type":[0,0,0,0,0,0,0,0,0,0,0,0,0,0,0,0,0,0,0,0,0,0,0,0,0,0,0,0,0,0,0,0,0,0,0,0,0,0,0,0,0,0,0,0,0,0,0,0,0,0,0,0,0,0,0,0,0,0,0],"sum_hessian":[3.781439E3,1.3446945E3,2.4367446E3,1.806424E1,1.3266301E3,2.0766147E3,3.6012973E2,1.5277908E1,2.786332E0,1.2954948E3,3.113544E1,2.046941E3,2.9673767E1,3.2440018E2,3.5729546E1,5.033787E0,1.0244122E1,7.845666E0,2.3289774E1,1.9899268E3,5.7014256E1,1.8400494E1,1.1273273E1,2.6047508E1,2.983527E2,1.4767442E1,2.0962105E1,2.949884E0,2.0839026E0,6.4305134E0,1.4151529E0,1.9454756E3,4.445118E1,2.6436924E1,3.0577332E1,1.4742531E1,3.657962E0,9.42074E0,1.8525336E0,1.9280846E1,6.7666636E0,1.1367816E1,3.3996258E0,4.531275E1,1.9001628E3,1.9791239E1,2.465994E1,1.9908133E1,6.5287914E0,4.3740973E0,2.6203234E1,2.403492E0,1.25447E0,3.4734247E0,5.947315E0,4.5024548E0,2.2642088E0,1.0257025E0,2.3739233E0],"tree_param":{"num_deleted":"0","num_feature":"3","num_nodes":"59","size_leaf_vector":"1"}},{"base_weights":[-3.8734827E-2,-5.2078533E-1,3.060496E-1,-5.250269E-1,-1.2877266E-1,-1.588963E-1,6.3045174E-1,-1.5909286E-1,-4.3799087E-1,2.1895522E-1,-1.369463E-1,6.453302E-1,-1.4892031E-1,-3.1572732E-1,-1.5528345E-1,4.9462527E-1,-1.0648876E-1,6.579063E-1,-2.2447532E-1,4.6353787E-1,-1.526383E-1,1.7382927E-1,3.2087937E-2,4.0549263E-1,6.878354E-1,1.1516913E-1,-3.888306E-1,4.1496914E-2,2.5799754E-1,1.7326961E-1,-1.0377898E-1,2.0778981E-1,9.506886E-2,-5.6610662E-2,1.6391358E-1,-1.4711174E-1,4.96791E-2],"categories":[],"categories_nodes":[],"categories_segments":[],"categories_sizes":[],"default_left":[0,0,0,0,0,0,0,0,0,0,0,0,0,0,0,0,0,0,0,0,0,0,0,0,0,0,0,0,0,0,0,0,0,0,0,0,0],"id":24,"left_children":[1,3,5,7,9,-1,11,-1,13,15,-1,17,-1,19,-1,21,-1,23,25,27,-1,-1,-1,29,31,33,35,-1,-1,-1,-1,-1,-1,-1,-1,-1,-1],"loss_changes":[4.3210748E2,1.7349854E0,4.1127713E2,2.6068115E-1,1.5733336E0,0E0,1.8635315E1,0E0,4.8972702E-1,1.2749901E0,0E0,1.1946228E1,0E0,4.6027317E0,0E0,1.0608852E-1,0E0,7.755188E0,9.4454265E-1,6.9158936E-1,0E0,0E0,0E0,1.5090973E1,1.4697876E0,8.929254E-1,7.055788E-1,0E0,0E0,0E0,0E0,0E0,0E0,0E0,0E0,0E0,0E0],"parents":[2147483647,0,0,1,1,2,2,3,3,4,4,6,6,8,8,9,9,11,11,13,13,15,15,17,17,18,18,19,19,23,23,24,24,25,25,26,26],"right_children":[2,4,6,8,10,-1,12,-1,14,16,-1,18,-1,20,-1,22,-1,24,26,28,-1,-1,-1,30,32,34,36,-1,-1,-1,-1,-1,-1,-1,-1,-1,-1],"split_conditions":[3.9625E0,3.9375E0,3.513E1,3.7644E0,-1.2181E2,-1.588963E-1,9.281E0,-1.5909286E-1,-1.2059E2,3.777E1,-1.369463E-1,-1.195E2,-1.4892031E-1,3.713E1,-1.5528345E-1,3.773E1,-1.0648876E-1,4.1514E0,-1.1931E2,3.8594E0,-1.526383E-1,1.7382927E-1,3.2087937E-2,3.828E1,8.7471E0,4.97E0,3.741E1,4.1496914E-2,2.5799754E-1,1.7326961E-1,-1.0377898E-1,2.0778981E-1,9.506886E-2,-5.6610662E-2,1.6391358E-1,-1.4711174E-1,4.96791E-2],"split_indices":[2,2,0,2,1,0,2,0,1,0,0,1,0,0,0,0,0,2,1,2,0,0,0,0,2,2,0,0,0,0,0,0,0,0,0,0,0],"split_type":[0,0,0,0,0,0,0,0,0,0,0,0,0,0,0,0,0,0,0,0,0,0,0,0,0,0,0,0,0,0,0,0,0,0,0,0,0],"sum_hessian":[2.5979111E3,1.0830981E3,1.5148131E3,1.0711687E3,1.1929444E1,4.2341248E2,1.0914006E3,1.0050735E3,6.6095184E1,5.949012E0,5.980432E0,1.0775999E3,1.3800796E1,2.8025425E1,3.8069763E1,4.112036E0,1.8369756E0,1.0624816E3,1.51183E1,5.286582E0,2.2738842E1,2.9680738E0,1.1439623E0,1.14168205E2,9.4831335E2,5.0276985E0,1.0090602E1,3.6452503E0,1.6413317E0,9.308376E1,2.1084438E1,9.353495E2,1.2963873E1,3.2792292E0,1.7484692E0,8.62626E0,1.4643421E0],"tree_param":{"num_deleted":"0","num_feature":"3","num_nodes":"37","size_leaf_vector":"1"}},{"base_weights":[1.2125737E-1,-5.1708287E-1,3.6601332E-1,-5.2884525E-1,-1.7926998E-1,5.714287E-1,-5.228336E-1,-1.5902624E-1,-3.411876E-1,6.162302E-1,-1.5278617E-1,6.756758E-1,-1.583041E-1,-1.5903269E-1,1.9069315E-1,6.103642E-2,-1.3644221E-1,2.2293934E-1,3.3414166E-2,6.8854237E-1,3.9200282E-1,2.983918E-1,6.9625336E-1,-3.4140217E-1,5.4146016E-1,2.0471425E-1,-6.967083E-2,2.1056613E-1,4.969396E-2,-1.228352E-2,-1.8374075E-1,1.9433687E-2,2.1627891E-1],"categories":[],"categories_nodes":[],"categories_segments":[],"categories_sizes":[],"default_left":[0,0,0,0,0,0,0,0,0,0,0,0,0,0,0,0,0,0,0,0,0,0,0,0,0,0,0,0,0,0,0,0,0],"id":25,"left_children":[1,3,5,7,9,11,13,-1,15,17,-1,19,-1,-1,-1,-1,-1,-1,-1,21,23,25,27,29,31,-1,-1,-1,-1,-1,-1,-1,-1],"loss_changes":[4.67901E2,3.203598E0,3.9549658E2,6.0272217E-3,8.043719E0,2.0186005E2,3.7659378E0,0E0,5.924093E-1,4.993236E-1,0E0,5.5944824E0,0E0,0E0,0E0,0E0,0E0,0E0,0E0,4.4122925E0,8.080963E0,6.579479E0,4.3832397E0,1.0180689E0,5.10581E0,0E0,0E0,0E0,0E0,0E0,0E0,0E0,0E0],"parents":[2147483647,0,0,1,1,2,2,3,3,4,4,5,5,6,6,8,8,9,9,11,11,19,19,20,20,21,21,22,22,23,23,24,24],"right_children":[2,4,6,8,10,12,14,-1,16,18,-1,20,-1,-1,-1,-1,-1,-1,-1,22,24,26,28,30,32,-1,-1,-1,-1,-1,-1,-1,-1],"split_conditions":[3.3571E0,3.3021E0,3.641E1,3.285E0,3.364E1,5.6762E0,-1.1892E2,-1.5902624E-1,3.387E1,3.319E1,-1.5278617E-1,3.495E1,-1.583041E-1,-1.5903269E-1,1.9069315E-1,6.103642E-2,-1.3644221E-1,2.2293934E-1,3.3414166E-2,3.4028E0,3.5714E0,3.401E1,5.6345E0,3.538E1,-1.1961E2,2.0471425E-1,-6.967083E-2,2.1056613E-1,4.969396E-2,-1.228352E-2,-1.8374075E-1,1.9433687E-2,2.1627891E-1],"split_indices":[2,2,0,2,0,2,1,0,0,0,0,0,0,0,0,0,0,0,0,2,2,0,2,0,1,0,0,0,0,0,0,0,0],"split_type":[0,0,0,0,0,0,0,0,0,0,0,0,0,0,0,0,0,0,0,0,0,0,0,0,0,0,0,0,0,0,0,0,0],"sum_hessian":[2.9925933E3,8.291086E2,2.1634846E3,8.006647E2,2.8443943E1,1.7576444E3,4.0584027E2,7.935868E2,7.077885E0,8.085861E0,2.0358082E1,1.6057311E3,1.5191335E2,4.038465E2,1.9937826E0,1.08521E0,5.9926753E0,6.084462E0,2.001399E0,1.5346947E3,7.10364E1,3.0513325E1,1.5041814E3,1.1808143E1,5.9228256E1,1.7536818E1,1.2976508E1,1.488059E3,1.6122395E1,6.146389E0,5.6617537E0,1.6572285E1,4.265597E1],"tree_param":{"num_deleted":"0","num_feature":"3","num_nodes":"33","size_leaf_vector":"1"}},{"base_weights":[-2.3199202E-1,-1.5919255E-1,4.6960786E-1,6.5581423E-1,-1.5780887E-1,6.805145E-1,-3.6479548E-1,-1.0260105E-1,6.830349E-1,2.3334996E-1,-1.46241E-1,6.944266E-1,5.0146997E-1,2.0156972E-1,-9.631547E-2,1.3333403E-1,2.1035199E-1,3.451095E-2,2.0116629E-1],"categories":[],"categories_nodes":[],"categories_segments":[],"categories_sizes":[],"default_left":[0,0,0,0,0,0,0,0,0,0,0,0,0,0,0,0,0,0,0],"id":26,"left_children":[1,-1,3,5,-1,7,9,-1,11,13,-1,15,17,-1,-1,-1,-1,-1,-1],"loss_changes":[4.6378467E2,0E0,1.2289952E2,1.4298477E1,0E0,1.6369171E0,1.1278828E0,0E0,7.7593994E-1,9.520154E-1,0E0,5.465393E-1,2.2546358E0,0E0,0E0,0E0,0E0,0E0,0E0],"parents":[2147483647,0,0,2,2,3,3,5,5,6,6,8,8,9,9,11,11,12,12],"right_children":[2,-1,4,6,-1,8,10,-1,12,14,-1,16,18,-1,-1,-1,-1,-1,-1],"split_conditions":[5.6345E0,-1.5919255E-1,3.641E1,1.05144E1,-1.5780887E-1,-1.2059E2,3.307E1,-1.0260105E-1,9.281E0,1.14537E1,-1.46241E-1,5.6762E0,-1.1837E2,2.0156972E-1,-9.631547E-2,1.3333403E-1,2.1035199E-1,3.451095E-2,2.0116629E-1],"split_indices":[2,0,0,2,0,1,0,0,2,2,0,2,1,0,0,0,0,0,0],"split_type":[0,0,0,0,0,0,0,0,0,0,0,0,0,0,0,0,0,0,0],"sum_hessian":[2.211235E3,1.5511859E3,6.6004913E2,5.563421E2,1.0370706E2,5.435213E2,1.28208E1,1.0052277E0,5.4251605E2,2.0283978E0,1.0792401E1,5.078292E2,3.4686855E1,1.0141989E0,1.0141989E0,1.5102935E1,4.9272626E2,1.1069176E1,2.361768E1],"tree_param":{"num_deleted":"0","num_feature":"3","num_nodes":"19","size_leaf_vector":"1"}},{"base_weights":[1.7654973E-1,4.8569492E-1,-5.1305336E-1,6.7993057E-1,-5.0696766E-1,-3.2097667E-2,-5.2273154E-1,-1.2875928E-1,6.826061E-1,-1.5873809E-1,3.3492345E-1,-1.4064546E-1,2.3940814E-1,-3.9987347E-1,-1.591951E-1,6.923504E-1,4.9217016E-1,4.624614E-1,-9.187277E-2,6.8789417E-1,-1.3260256E-1,-2.8004447E-1,-1.5510938E-1,6.991751E-1,4.86205E-1,-4.2363334E-1,5.744058E-1,7.517872E-2,2.072135E-1,2.2967552E-1,5.9096895E-2,5.5674905E-1,-1.532774E-1,1.0670266E-1,2.1004666E-1,-1.19541556E-1,1.8859476E-1,-1.5769112E-1,1.2814168E-2,1.9006391E-1,8.256498E-2,9.419988E-2,-4.575027E-2,-8.733578E-2,2.2898927E-1],"categories":[],"categories_nodes":[],"categories_segments":[],"categories_sizes":[],"default_left":[0,0,0,0,0,0,0,0,0,0,0,0,0,0,0,0,0,0,0,0,0,0,0,0,0,0,0,0,0,0,0,0,0,0,0,0,0,0,0,0,0,0,0,0,0],"id":27,"left_children":[1,3,5,7,9,11,13,-1,15,-1,17,-1,19,21,-1,23,25,27,-1,29,-1,31,-1,33,35,37,39,41,-1,-1,-1,43,-1,-1,-1,-1,-1,-1,-1,-1,-1,-1,-1,-1,-1],"loss_changes":[6.748488E2,4.2171143E2,4.5446777E0,5.7181396E0,6.8599014E0,2.5306242E0,7.223511E-1,0E0,3.0443115E0,0E0,9.4291925E-1,0E0,4.349935E0,7.287245E-1,0E0,2.0980225E0,7.1912117E0,7.05781E-1,0E0,1.6860914E-1,0E0,6.6487436E0,0E0,3.151245E-1,7.6621695E0,4.114287E-1,1.3310223E0,2.8173083E-1,0E0,0E0,0E0,1.5535228E0,0E0,0E0,0E0,0E0,0E0,0E0,0E0,0E0,0E0,0E0,0E0,0E0,0E0],"parents":[2147483647,0,0,1,1,2,2,3,3,4,4,5,5,6,6,8,8,10,10,12,12,13,13,15,15,16,16,17,17,19,19,21,21,23,23,24,24,25,25,26,26,27,27,31,31],"right_children":[2,4,6,8,10,12,14,-1,16,-1,18,-1,20,22,-1,24,26,28,-1,30,-1,32,-1,34,36,38,40,42,-1,-1,-1,44,-1,-1,-1,-1,-1,-1,-1,-1,-1,-1,-1,-1,-1],"split_conditions":[3.4028E0,3.655E1,3.4375E0,-1.2072E2,-1.1931E2,3.422E1,3.5714E0,-1.2875928E-1,3.3021E0,-1.5873809E-1,3.739E1,-1.4064546E-1,3.641E1,-1.1884E2,-1.591951E-1,3.615E1,3.338E1,-1.1921E2,-9.187277E-2,-1.1766E2,-1.3260256E-1,3.641E1,-1.5510938E-1,-1.2066E2,-1.1967E2,-1.1689E2,3.3906E0,1.7446E0,2.072135E-1,2.2967552E-1,5.9096895E-2,3.495E1,-1.532774E-1,1.0670266E-1,2.1004666E-1,-1.19541556E-1,1.8859476E-1,-1.5769112E-1,1.2814168E-2,1.9006391E-1,8.256498E-2,9.419988E-2,-4.575027E-2,-8.733578E-2,2.2898927E-1],"split_indices":[2,0,2,1,1,0,2,0,2,0,0,0,0,1,0,0,0,1,0,1,0,0,0,1,1,1,2,2,0,0,0,0,0,0,0,0,0,0,0,0,0,0,0,0,0],"split_type":[0,0,0,0,0,0,0,0,0,0,0,0,0,0,0,0,0,0,0,0,0,0,0,0,0,0,0,0,0,0,0,0,0,0,0,0,0,0,0,0,0,0,0,0,0],"sum_hessian":[3.163349E3,2.1843936E3,9.789556E2,1.8271815E3,3.5721204E2,1.9395895E1,9.5955975E2,4.0134664E0,1.823168E3,3.4841302E2,8.799004E0,7.1570144E0,1.2238881E1,6.1221157E1,8.9833856E2,1.7319131E3,9.125491E1,7.57161E0,1.2273939E0,7.3752365E0,4.8636446E0,3.19416E1,2.9279554E1,1.6740983E3,5.781485E1,7.1770806E0,8.407783E1,3.300637E0,4.270973E0,5.8844247E0,1.4908116E0,6.6020303E0,2.5339571E1,5.7996197E0,1.6682986E3,7.7686644E0,5.0046185E1,5.784669E0,1.3924121E0,6.92681E1,1.48097315E1,1.4258673E0,1.8747697E0,1.2130578E0,5.3889723E0],"tree_param":{"num_deleted":"0","num_feature":"3","num_nodes":"45","size_leaf_vector":"1"}},{"base_weights":[-4.5890954E-1,-5.295703E-1,5.456541E-1,-1.5920596E-1,-3.6733428E-1,2.2243956E-1,6.549612E-1,-1.4340974E-1,-1.3413072E-1,-2.8263834E-1,5.77456E-1,7.033658E-1,3.7626195E-1,-1.2916976E-1,1.9306488E-1,2.7183345E-1,-4.29954E-1,6.665756E-1,-5.3357176E-2,2.5360507E-1,2.1443428E-1,-1.3011886E-1,5.9069145E-1,1.0302048E-1,1.524377E-2,-1.4700755E-1,-1.6822755E-1,3.611232E-2,2.1166699E-1,-1.33970035E-2,1.2697186E-1,2.8182995E-1,1.9645123E-1,4.924502E-2,-1.06840335E-1,-5.261312E-2,1.8782917E-1],"categories":[],"categories_nodes":[],"categories_segments":[],"categories_sizes":[],"default_left":[0,0,0,0,0,0,0,0,0,0,0,0,0,0,0,0,0,0,0,0,0,0,0,0,0,0,0,0,0,0,0,0,0,0,0,0,0],"id":28,"left_children":[1,3,5,-1,7,9,11,-1,13,15,17,19,21,-1,-1,23,25,27,-1,29,-1,-1,31,-1,-1,-1,33,-1,-1,-1,-1,35,-1,-1,-1,-1,-1],"loss_changes":[1.3483627E2,1.2582397E-1,4.2725754E0,0E0,3.3222866E-1,6.101822E0,9.891319E-1,0E0,1.7368335E0,1.2883452E0,1.44983E0,2.1936417E-1,3.0183878E0,0E0,0E0,3.986293E-2,1.01805925E-1,2.9620123E-1,0E0,1.9504716E-1,0E0,0E0,7.296419E-2,0E0,0E0,0E0,2.901915E-1,0E0,0E0,0E0,0E0,7.37961E-1,0E0,0E0,0E0,0E0,0E0],"parents":[2147483647,0,0,1,1,2,2,4,4,5,5,6,6,8,8,9,9,10,10,11,11,12,12,15,15,16,16,17,17,19,19,22,22,26,26,31,31],"right_children":[2,4,6,-1,8,10,12,-1,14,16,18,20,22,-1,-1,24,26,28,-1,30,-1,-1,32,-1,-1,-1,34,-1,-1,-1,-1,36,-1,-1,-1,-1,-1],"split_conditions":[8.7471E0,8.1988E0,1.00765E1,-1.5920596E-1,3.538E1,3.429E1,-1.1798E2,-1.4340974E-1,-1.2187E2,-1.1861E2,3.786E1,3.378E1,1.05144E1,-1.2916976E-1,1.9306488E-1,3.419E1,3.415E1,-1.2226E2,-5.3357176E-2,1.14537E1,2.1443428E-1,-1.3011886E-1,3.307E1,1.0302048E-1,1.524377E-2,-1.4700755E-1,-1.1834E2,3.611232E-2,2.1166699E-1,-1.33970035E-2,1.2697186E-1,1.14537E1,1.9645123E-1,4.924502E-2,-1.06840335E-1,-5.261312E-2,1.8782917E-1],"split_indices":[2,2,2,0,0,0,1,0,1,1,0,0,2,0,0,0,0,1,0,2,0,0,0,0,0,0,1,0,0,0,0,2,0,0,0,0,0],"split_type":[0,0,0,0,0,0,0,0,0,0,0,0,0,0,0,0,0,0,0,0,0,0,0,0,0,0,0,0,0,0,0,0,0,0,0,0,0],"sum_hessian":[1.8944807E3,1.7704225E3,1.2405823E2,1.7560693E3,1.4353256E1,3.2119064E1,9.193916E1,9.021187E0,5.3320694E0,1.3341762E1,1.8777302E1,7.703582E1,1.4903337E1,4.1836843E0,1.1483852E0,2.6232054E0,1.0718556E1,1.6900671E1,1.8766307E0,2.4814725E0,7.455435E1,2.9054608E0,1.1997876E1,1.5632936E0,1.0599118E0,8.008235E0,2.710322E0,1.3981279E0,1.5502543E1,1.1667565E0,1.3147159E0,2.9908028E0,9.007073E0,1.0245259E0,1.685796E0,1.4954014E0,1.4954014E0],"tree_param":{"num_deleted":"0","num_feature":"3","num_nodes":"37","size_leaf_vector":"1"}},{"base_weights":[1.7757301E-1,-5.07472E-1,5.196915E-1,4.1015112E-1,-5.2240527E-1,6.6960156E-1,-4.6289316E-1,5.625038E-1,-1.157234E-1,-1.5909646E-1,-2.0878315E-1,6.8023425E-1,-6.397243E-2,-5.124177E-1,2.4683278E-2,1.936655E-1,2.1198674E-1,4.8389682E-1,-1.531662E-1,6.9249666E-1,2.6009563E-1,-4.4625124E-1,4.627836E-1,-2.6699123E-1,-1.5868938E-1,6.8375325E-1,-1.4999053E-1,1.7062446E-1,-1.092754E-1,5.6745714E-1,4.56293E-3,6.9770926E-1,5.0891584E-1,-2.2324562E-1,6.878097E-1,-1.4811534E-1,-1.9931543E-1,5.6086624E-1,-2.0733833E-2,-1.4839405E-1,2.0136969E-1,3.936608E-1,2.3405768E-1,9.6480146E-2,2.0957293E-1,1.6614331E-1,2.103199E-1,5.6033373E-2,2.2694676E-1,-1.5534568E-1,7.9918385E-2,2.2569361E-1,-1.1490088E-1,-1.1114191E-1,3.7997257E-2,7.7386536E-2,2.0533462E-1,-1.1836028E-1,2.0533074E-1,1.4576806E-1,1.4859933E-2],"categories":[],"categories_nodes":[],"categories_segments":[],"categories_sizes":[],"default_left":[0,0,0,0,0,0,0,0,0,0,0,0,0,0,0,0,0,0,0,0,0,0,0,0,0,0,0,0,0,0,0,0,0,0,0,0,0,0,0,0,0,0,0,0,0,0,0,0,0,0,0,0,0,0,0,0,0,0,0,0,0],"id":29,"left_children":[1,3,5,7,9,11,13,15,-1,-1,17,19,21,23,25,27,-1,29,-1,31,33,35,37,39,-1,41,-1,-1,-1,43,-1,45,47,49,51,-1,53,55,-1,-1,57,59,-1,-1,-1,-1,-1,-1,-1,-1,-1,-1,-1,-1,-1,-1,-1,-1,-1,-1,-1],"loss_changes":[7.4211914E2,1.4668335E1,3.1134222E2,2.3330326E0,2.467163E0,1.4336548E1,6.7762833E0,6.633668E-1,0E0,0E0,5.9354763E0,9.126038E0,5.662572E0,8.915863E-1,9.602411E0,1.3805273E0,0E0,3.3488965E-1,0E0,1.3239746E0,1.1074802E1,9.159207E-2,6.588135E-1,2.027676E0,0E0,3.6767006E-2,0E0,0E0,0E0,1.4425755E-2,0E0,4.345703E-1,4.016926E0,3.8240447E0,2.2408724E0,0E0,2.8630295E-1,2.0319748E-1,0E0,0E0,2.177182E0,1.3734215E-1,0E0,0E0,0E0,0E0,0E0,0E0,0E0,0E0,0E0,0E0,0E0,0E0,0E0,0E0,0E0,0E0,0E0,0E0,0E0],"parents":[2147483647,0,0,1,1,2,2,3,3,4,4,5,5,6,6,7,7,10,10,11,11,12,12,13,13,14,14,15,15,17,17,19,19,20,20,21,21,22,22,23,23,25,25,29,29,31,31,32,32,33,33,34,34,36,36,37,37,40,40,41,41],"right_children":[2,4,6,8,10,12,14,16,-1,-1,18,20,22,24,26,28,-1,30,-1,32,34,36,38,40,-1,42,-1,-1,-1,44,-1,46,48,50,52,-1,54,56,-1,-1,58,60,-1,-1,-1,-1,-1,-1,-1,-1,-1,-1,-1,-1,-1,-1,-1,-1,-1,-1,-1],"split_conditions":[3.615E1,-1.2066E2,4.1514E0,3.7E0,3.542E1,-1.1937E2,3.866E1,3.535E1,-1.157234E-1,-1.5909646E-1,-1.1996E2,4.0282E0,3.66E1,4.239E0,4.3542E0,-1.2072E2,2.1198674E-1,3.3182E0,-1.531662E-1,3.9375E0,-1.2179E2,3.641E1,-1.1857E2,-1.2149E2,-1.5868938E-1,-1.2133E2,-1.4999053E-1,1.7062446E-1,-1.092754E-1,2.8214E0,4.56293E-3,3.655E1,3.781E1,3.816E1,-1.1976E2,-1.4811534E-1,2.5804E0,3.68E1,-2.0733833E-2,-1.4839405E-1,3.756E1,4.2813E0,2.3405768E-1,9.6480146E-2,2.0957293E-1,1.6614331E-1,2.103199E-1,5.6033373E-2,2.2694676E-1,-1.5534568E-1,7.9918385E-2,2.2569361E-1,-1.1490088E-1,-1.1114191E-1,3.7997257E-2,7.7386536E-2,2.0533462E-1,-1.1836028E-1,2.0533074E-1,1.4576806E-1,1.4859933E-2],"split_indices":[0,1,2,2,0,1,0,0,0,0,1,2,0,2,2,1,0,2,0,2,1,0,1,1,0,1,0,0,0,2,0,0,0,0,1,0,2,0,0,0,0,2,0,0,0,0,0,0,0,0,0,0,0,0,0,0,0,0,0,0,0],"split_type":[0,0,0,0,0,0,0,0,0,0,0,0,0,0,0,0,0,0,0,0,0,0,0,0,0,0,0,0,0,0,0,0,0,0,0,0,0,0,0,0,0,0,0,0,0,0,0,0,0,0,0,0,0,0,0,0,0,0,0,0,0],"sum_hessian":[3.1643638E3,1.0537974E3,2.1105667E3,1.6450968E1,1.0373463E3,1.8314641E3,2.791025E2,1.4053962E1,2.397006E0,1.011133E3,2.6213333E1,1.805369E3,2.6094988E1,2.5332103E2,2.5781475E1,4.6070557E0,9.446906E0,7.7714195E0,1.8441914E1,1.753541E3,5.18281E1,1.5209755E1,1.0885234E1,1.7082712E1,2.3623831E2,1.1292514E1,1.4488962E1,2.743327E0,1.8637289E0,6.416678E0,1.3547415E0,1.7024021E3,5.1138927E1,2.4556221E1,2.7271875E1,1.1919237E1,3.2905173E0,9.1445055E0,1.7407283E0,1.145747E1,5.6252418E0,4.085408E0,7.207105E0,3.432765E0,2.9839127E0,4.25937E1,1.6598083E3,2.29853E1,2.8153627E1,1.5296262E1,9.25996E0,2.600298E1,1.2688967E0,2.0681078E0,1.2224096E0,3.54434E0,5.6001654E0,2.6005313E0,3.0247102E0,2.8970006E0,1.1884078E0],"tree_param":{"num_deleted":"0","num_feature":"3","num_nodes":"61","size_leaf_vector":"1"}},{"base_weights":[-3.6208093E-2,-5.16155E-1,2.7808556E-1,-1.5674335E-1,-4.140227E-1,-1.5649918E-1,5.619991E-1,-2.7772582E-1,-1.5189166E-1,5.746685E-1,-1.4400566E-1,4.3720686E-1,-1.4860086E-1,3.5823742E-1,6.202196E-1,1.2881514E-1,2.3967029E-1,4.6279612E-1,-5.020849E-1,6.27782E-1,-2.847027E-1,1.5394261E-1,-1.02777794E-1,1.6590612E-1,-1.0459198E-2,-7.6661326E-2,-1.6861698E-1,1.9019838E-1,7.516027E-2,-1.3324416E-1,8.094169E-2],"categories":[],"categories_nodes":[],"categories_segments":[],"categories_sizes":[],"default_left":[0,0,0,0,0,0,0,0,0,0,0,0,0,0,0,0,0,0,0,0,0,0,0,0,0,0,0,0,0,0,0],"id":30,"left_children":[1,3,5,-1,7,-1,9,11,-1,13,-1,15,-1,17,19,21,-1,23,25,27,29,-1,-1,-1,-1,-1,-1,-1,-1,-1,-1],"loss_changes":[3.1602737E2,3.1904602E-1,2.8776996E2,0E0,5.278759E-1,0E0,1.2617645E1,3.899393E0,0E0,8.888031E0,0E0,5.72495E-1,0E0,1.4898392E1,5.3937073E0,9.839482E-1,0E0,6.5699615E0,1.246953E-1,1.6130981E0,7.390431E-1,0E0,0E0,0E0,0E0,0E0,0E0,0E0,0E0,0E0,0E0],"parents":[2147483647,0,0,1,1,2,2,4,4,6,6,7,7,9,9,11,11,13,13,14,14,15,15,17,17,18,18,19,19,20,20],"right_children":[2,4,6,-1,8,-1,10,12,-1,14,-1,16,-1,18,20,22,-1,24,26,28,30,-1,-1,-1,-1,-1,-1,-1,-1,-1,-1],"split_conditions":[3.9375E0,3.7644E0,3.513E1,-1.5674335E-1,-1.2059E2,-1.5649918E-1,9.281E0,3.713E1,-1.5189166E-1,4.239E0,-1.4400566E-1,3.8594E0,-1.4860086E-1,3.855E1,-1.1931E2,3.6E1,2.3967029E-1,-1.2133E2,3.866E1,8.7471E0,3.736E1,1.5394261E-1,-1.02777794E-1,1.6590612E-1,-1.0459198E-2,-7.6661326E-2,-1.6861698E-1,1.9019838E-1,7.516027E-2,-1.3324416E-1,8.094169E-2],"split_indices":[2,2,0,0,1,0,2,0,0,2,0,2,0,0,1,0,0,1,0,2,0,0,0,0,0,0,0,0,0,0,0],"split_type":[0,0,0,0,0,0,0,0,0,0,0,0,0,0,0,0,0,0,0,0,0,0,0,0,0,0,0,0,0,0,0],"sum_hessian":[2.0931057E3,8.280211E2,1.2650846E3,7.7587305E2,5.2148087E1,3.3122562E2,9.338591E2,2.2672096E1,2.947599E1,9.230842E2,1.0774841E1,5.055088E0,1.7617008E1,1.6203883E2,7.6104535E2,3.4606085E0,1.5944796E0,1.4489159E2,1.714724E1,7.550418E2,6.0035796E0,1.8576125E0,1.6029959E0,1.2256051E2,2.2331083E1,4.384262E0,1.2762979E1,7.421395E2,1.290228E1,4.8173995E0,1.18618E0],"tree_param":{"num_deleted":"0","num_feature":"3","num_nodes":"31","size_leaf_vector":"1"}},{"base_weights":[1.1339366E-1,-5.076973E-1,3.3699146E-1,-1.5665969E-1,-1.9703686E-1,5.199268E-1,-5.1387495E-1,6.015463E-1,-1.5070117E-1,6.107621E-1,-1.5572017E-1,-1.5662381E-1,1.6411708E-1,2.2640724E-1,2.20466E-2,6.2436503E-1,3.315023E-1,6.3039106E-1,1.4386526E-1,-4.9272236E-1,4.3384546E-1,7.942199E-2,1.9162352E-1,1.3342144E-1,1.1049363E-2,-1.7688511E-1,-4.4245794E-2,2.5934355E-2,1.7563252E-1],"categories":[],"categories_nodes":[],"categories_segments":[],"categories_sizes":[],"default_left":[0,0,0,0,0,0,0,0,0,0,0,0,0,0,0,0,0,0,0,0,0,0,0,0,0,0,0,0,0],"id":31,"left_children":[1,3,5,-1,7,9,11,13,-1,15,-1,-1,-1,-1,-1,17,19,21,23,25,27,-1,-1,-1,-1,-1,-1,-1,-1],"loss_changes":[3.368951E2,2.7904205E0,2.7786444E2,0E0,7.676989E0,1.3889532E2,3.036911E0,6.578746E-1,0E0,4.9241333E0,0E0,0E0,0E0,0E0,0E0,3.6355286E0,5.6859407E0,3.7122498E0,5.38642E-1,1.683948E-1,3.0164557E0,0E0,0E0,0E0,0E0,0E0,0E0,0E0,0E0],"parents":[2147483647,0,0,1,1,2,2,4,4,5,5,6,6,7,7,9,9,15,15,16,16,17,17,18,18,19,19,20,20],"right_children":[2,4,6,-1,8,10,12,14,-1,16,-1,-1,-1,-1,-1,18,20,22,24,26,28,-1,-1,-1,-1,-1,-1,-1,-1],"split_conditions":[3.3571E0,3.285E0,3.641E1,-1.5665969E-1,3.364E1,5.6762E0,-1.1892E2,3.319E1,-1.5070117E-1,3.495E1,-1.5572017E-1,-1.5662381E-1,1.6411708E-1,2.2640724E-1,2.20466E-2,5.6345E0,3.5161E0,3.4028E0,-1.1857E2,-1.1884E2,-1.195E2,7.942199E-2,1.9162352E-1,1.3342144E-1,1.1049363E-2,-1.7688511E-1,-4.4245794E-2,2.5934355E-2,1.7563252E-1],"split_indices":[2,2,0,0,0,2,1,0,0,0,0,0,0,0,0,2,2,2,1,1,1,0,0,0,0,0,0,0,0],"split_type":[0,0,0,0,0,0,0,0,0,0,0,0,0,0,0,0,0,0,0,0,0,0,0,0,0,0,0,0,0],"sum_hessian":[2.4236628E3,6.412321E2,1.7824307E3,6.1198364E2,2.9248468E1,1.4673427E3,3.150881E2,7.8208632E0,2.1427605E1,1.3497511E3,1.1759146E2,3.131742E2,1.9139237E0,5.72992E0,2.0909433E0,1.2858794E3,6.3871758E1,1.2696447E3,1.6234768E1,6.633577E0,5.7238182E1,2.9089863E1,1.2405548E3,3.4320798E0,1.2802689E1,4.6270704E0,2.0065062E0,1.7866226E1,3.9371956E1],"tree_param":{"num_deleted":"0","num_feature":"3","num_nodes":"29","size_leaf_vector":"1"}},{"base_weights":[-2.235277E-1,-1.5685725E-1,4.2800722E-1,5.902328E-1,-1.5509823E-1,6.12098E-1,-3.3046487E-1,6.2557113E-1,4.1823235E-1,6.035762E-2,-1.4086714E-1,3.483816E-1,6.353277E-1,8.2649775E-2,5.7899433E-1,1.7745263E-3,1.2517838E-1,5.3328764E-2,1.913948E-1,1.12650536E-1,-9.3889214E-2,9.4979264E-2,1.8897939E-1],"categories":[],"categories_nodes":[],"categories_segments":[],"categories_sizes":[],"default_left":[0,0,0,0,0,0,0,0,0,0,0,0,0,0,0,0,0,0,0,0,0,0,0],"id":32,"left_children":[1,-1,3,5,-1,7,9,11,13,-1,-1,15,17,19,21,-1,-1,-1,-1,-1,-1,-1,-1],"loss_changes":[3.414986E2,0E0,8.483939E1,9.685989E0,0E0,9.412384E-1,9.506315E-1,9.376831E-1,1.7293382E0,0E0,0E0,3.935001E-1,3.8807678E-1,1.4888177E0,9.602642E-2,0E0,0E0,0E0,0E0,0E0,0E0,0E0,0E0],"parents":[2147483647,0,0,2,2,3,3,5,5,6,6,7,7,8,8,11,11,12,12,13,13,14,14],"right_children":[2,-1,4,6,-1,8,10,12,14,-1,-1,16,18,20,22,-1,-1,-1,-1,-1,-1,-1,-1],"split_conditions":[5.6345E0,-1.5685725E-1,3.641E1,1.05144E1,-1.5509823E-1,9.281E0,3.307E1,5.6762E0,-1.1837E2,6.035762E-2,-1.4086714E-1,-1.1857E2,-1.2042E2,3.413E1,-1.1811E2,1.7745263E-3,1.2517838E-1,5.3328764E-2,1.913948E-1,1.12650536E-1,-9.3889214E-2,9.4979264E-2,1.8897939E-1],"split_indices":[2,0,0,2,0,2,0,2,1,0,0,1,1,0,1,0,0,0,0,0,0,0,0],"split_type":[0,0,0,0,0,0,0,0,0,0,0,0,0,0,0,0,0,0,0,0,0,0,0],"sum_hessian":[1.7489135E3,1.1984952E3,5.5041815E2,4.7009396E2,8.032421E1,4.595163E2,1.0577657E1,4.2757416E2,3.1942133E1,2.10089E0,8.476767E0,1.5786159E1,4.1178802E2,1.0836207E1,2.1105925E1,2.8252113E0,1.2960947E1,2.7676134E0,4.090204E2,6.2560334E0,4.580174E0,4.6040545E0,1.6501871E1],"tree_param":{"num_deleted":"0","num_feature":"3","num_nodes":"23","size_leaf_vector":"1"}},{"base_weights":[1.6453783E-1,4.4094932E-1,-5.135373E-1,6.1111414E-1,-4.9627823E-1,-3.748237E-1,-1.5683907E-1,6.213547E-1,2.4305768E-1,-1.5631483E-1,2.8809905E-1,-2.4853571E-1,-1.5156758E-1,-1.2047474E-1,6.237758E-1,-3.0652836E-1,5.0580126E-1,3.9831936E-1,-8.544565E-2,4.4021738E-1,-1.4940503E-1,6.3583153E-1,4.5799887E-1,1.1630253E-1,-1.760669E-1,2.0953226E-1,-3.9994515E-2,5.6153595E-2,1.8365207E-1,-9.1634765E-2,5.947555E-1,1.9206698E-1,1.5886863E-1,-7.9450116E-2,1.7620012E-1,-1.460941E-1,1.6529171E-1,-1.2526342E-1,1.7495146E-1,7.978369E-2,-4.3914523E-2,5.2013926E-2,2.3034357E-1],"categories":[],"categories_nodes":[],"categories_segments":[],"categories_sizes":[],"default_left":[0,0,0,0,0,0,0,0,0,0,0,0,0,0,0,0,0,0,0,0,0,0,0,0,0,0,0,0,0,0,0,0,0,0,0,0,0,0,0,0,0,0,0],"id":33,"left_children":[1,3,5,7,9,11,-1,13,15,-1,17,19,-1,-1,21,23,25,27,-1,29,-1,31,33,35,-1,-1,37,39,-1,-1,41,-1,-1,-1,-1,-1,-1,-1,-1,-1,-1,-1,-1],"loss_changes":[4.8238745E2,2.9185043E2,7.615051E-1,5.682129E0,5.6188583E0,7.0079947E-1,0E0,3.9779663E0,6.441731E0,0E0,6.982234E-1,4.9377327E0,0E0,0E0,2.7105103E0,1.8113867E0,3.164554E0,5.644258E-1,0E0,1.0842469E0,0E0,3.1311035E-1,1.0008629E1,2.0245092E0,0E0,0E0,2.2970731E0,2.1944626E-1,0E0,0E0,3.6473393E-1,0E0,0E0,0E0,0E0,0E0,0E0,0E0,0E0,0E0,0E0,0E0,0E0],"parents":[2147483647,0,0,1,1,2,2,3,3,4,4,5,5,7,7,8,8,10,10,11,11,14,14,15,15,16,16,17,17,19,19,21,21,22,22,23,23,26,26,27,27,30,30],"right_children":[2,4,6,8,10,12,-1,14,16,-1,18,20,-1,-1,22,24,26,28,-1,30,-1,32,34,36,-1,-1,38,40,-1,-1,42,-1,-1,-1,-1,-1,-1,-1,-1,-1,-1,-1,-1],"split_conditions":[3.4375E0,3.655E1,3.5714E0,3.375E0,-1.1931E2,-1.1884E2,-1.5683907E-1,-1.2072E2,3.401E1,-1.5631483E-1,3.739E1,3.641E1,-1.5156758E-1,-1.2047474E-1,3.542E1,3.3906E0,-1.181E2,-1.1921E2,-8.544565E-2,-1.2066E2,-1.4940503E-1,3.285E0,-1.1967E2,3.377E1,-1.760669E-1,2.0953226E-1,3.44E1,1.7446E0,1.8365207E-1,-9.1634765E-2,3.513E1,1.9206698E-1,1.5886863E-1,-7.9450116E-2,1.7620012E-1,-1.460941E-1,1.6529171E-1,-1.2526342E-1,1.7495146E-1,7.978369E-2,-4.3914523E-2,5.2013926E-2,2.3034357E-1],"split_indices":[2,0,2,2,1,1,0,1,0,0,0,0,0,0,0,2,1,1,0,1,0,2,1,0,0,0,0,2,0,0,0,0,0,0,0,0,0,0,0,0,0,0,0],"split_type":[0,0,0,0,0,0,0,0,0,0,0,0,0,0,0,0,0,0,0,0,0,0,0,0,0,0,0,0,0,0,0,0,0,0,0,0,0,0,0,0,0,0,0],"sum_hessian":[2.5715164E3,1.8270748E3,7.4444165E2,1.5466162E3,2.8045865E2,4.917963E1,6.95262E2,1.5040796E3,4.253657E1,2.7219812E2,8.260501E0,2.646013E1,2.2719501E1,3.1621397E0,1.5009175E3,1.3704321E1,2.883225E1,7.1833005E0,1.0771998E0,6.8325853E0,1.9627544E1,1.3965227E3,1.0439471E2,5.6971908E0,8.00713E0,2.110391E1,7.728339E0,3.2484207E0,3.93488E0,1.0053086E0,5.8272767E0,1.3362753E3,6.0247524E1,1.5685151E1,8.870956E1,2.33545E0,3.3617408E0,5.018066E0,2.7102735E0,1.441839E0,1.8065817E0,2.279291E0,3.5479858E0],"tree_param":{"num_deleted":"0","num_feature":"3","num_nodes":"43","size_leaf_vector":"1"}},{"base_weights":[-4.475109E-1,-5.2147573E-1,4.8616433E-1,-1.5687317E-1,-3.252603E-1,1.9771574E-1,5.916095E-1,-1.3755275E-1,-7.286783E-2,4.4738162E-1,-3.2373464E-1,6.3889647E-1,3.27457E-1,1.8421206E-1,-1.214185E-1,5.1326364E-1,-5.1970087E-2,-1.4175627E-1,4.8228484E-2,2.219342E-1,1.9501397E-1,-1.2187071E-1,5.15171E-1,2.6339645E-2,5.399229E-1,1.325149E-1,-1.0090236E-1,-1.2122518E-2,1.1092131E-1,5.5454504E-1,3.98046E-2,2.16052E-2,1.7026263E-1,4.5891736E-2,1.8142362E-1],"categories":[],"categories_nodes":[],"categories_segments":[],"categories_sizes":[],"default_left":[0,0,0,0,0,0,0,0,0,0,0,0,0,0,0,0,0,0,0,0,0,0,0,0,0,0,0,0,0,0,0,0,0,0,0],"id":34,"left_children":[1,3,5,-1,7,9,11,-1,13,15,17,19,21,-1,-1,23,-1,-1,25,27,-1,-1,29,-1,31,-1,-1,-1,-1,33,-1,-1,-1,-1,-1],"loss_changes":[1.0227417E2,2.154541E-1,3.1970062E0,0E0,3.8987064E-1,4.137664E0,7.811661E-1,0E0,1.5108914E0,9.5407104E-1,6.04452E-1,1.6349411E-1,2.1498046E0,0E0,0E0,1.7242813E-1,0E0,0E0,7.402876E-1,1.4066857E-1,0E0,0E0,1.02027655E-1,0E0,1.9231558E-1,0E0,0E0,0E0,0E0,1.1427283E-1,0E0,0E0,0E0,0E0,0E0],"parents":[2147483647,0,0,1,1,2,2,4,4,5,5,6,6,8,8,9,9,10,10,11,11,12,12,15,15,18,18,19,19,22,22,24,24,29,29],"right_children":[2,4,6,-1,8,10,12,-1,14,16,18,20,22,-1,-1,24,-1,-1,26,28,-1,-1,30,-1,32,-1,-1,-1,-1,34,-1,-1,-1,-1,-1],"split_conditions":[8.7471E0,8.1988E0,1.00765E1,-1.5687317E-1,3.538E1,-1.1861E2,-1.1798E2,-1.3755275E-1,3.726E1,3.786E1,3.415E1,3.378E1,1.05144E1,1.8421206E-1,-1.214185E-1,-1.2226E2,-5.1970087E-2,-1.4175627E-1,-1.1839E2,1.14537E1,1.9501397E-1,-1.2187071E-1,-1.1722E2,2.6339645E-2,3.417E1,1.325149E-1,-1.0090236E-1,-1.2122518E-2,1.1092131E-1,3.301E1,3.98046E-2,2.16052E-2,1.7026263E-1,4.5891736E-2,1.8142362E-1],"split_indices":[2,2,2,0,0,1,1,0,0,0,0,0,2,0,0,1,0,0,1,2,0,0,1,0,0,0,0,0,0,0,0,0,0,0,0],"split_type":[0,0,0,0,0,0,0,0,0,0,0,0,0,0,0,0,0,0,0,0,0,0,0,0,0,0,0,0,0,0,0,0,0,0,0],"sum_hessian":[1.4762941E3,1.3683372E3,1.0795686E2,1.3567511E3,1.1586041E1,2.9669643E1,7.828722E1,7.048293E0,4.5377483E0,2.0159498E1,9.510146E0,6.519731E1,1.3089905E1,1.2011755E0,3.336573E0,1.8381199E1,1.7782992E0,6.599847E0,2.9102998E0,2.2424908E0,6.2954823E1,2.4295857E0,1.0660319E1,1.3369935E0,1.7044205E1,1.3650233E0,1.5452766E0,1.0699677E0,1.172523E0,9.2575035E0,1.4028157E0,1.1510687E0,1.5893136E1,1.4784026E0,7.779101E0],"tree_param":{"num_deleted":"0","num_feature":"3","num_nodes":"35","size_leaf_vector":"1"}},{"base_weights":[1.6678864E-1,-5.0883156E-1,4.7007084E-1,2.9842395E-1,-5.2029043E-1,5.991382E-1,-4.4162208E-1,4.2952114E-1,-9.936531E-2,-1.3159604E-1,-1.5685698E-1,6.145769E-1,-1.6900058E-1,-4.745353E-2,-1.562101E-1,1.7542402E-1,5.2135848E-2,-1.2406957E-1,1.0902702E-1,6.326775E-1,3.3733442E-1,-4.5904428E-1,3.9764455E-1,-3.955775E-1,5.884535E-1,-1.0351117E-1,1.4111635E-1,1.9139905E-1,4.5217094E-1,8.04509E-2,6.233937E-1,-1.4919774E-1,-1.6668299E-1,5.060482E-1,7.3853857E-3,-1.4906874E-1,-1.0107021E-1,1.3001147E-2,6.290521E-1,-9.733773E-2,1.7096488E-1,-1.3812147E-1,8.4531985E-2,8.548959E-2,2.0817499E-1,-1.0429192E-1,4.198957E-2,5.7573225E-2,1.8484227E-1,-1.0202771E-1,1.1460825E-1,-8.9589655E-2,1.4243802E-1,1.0242465E-1,2.320817E-1],"categories":[],"categories_nodes":[],"categories_segments":[],"categories_sizes":[],"default_left":[0,0,0,0,0,0,0,0,0,0,0,0,0,0,0,0,0,0,0,0,0,0,0,0,0,0,0,0,0,0,0,0,0,0,0,0,0,0,0,0,0,0,0,0,0,0,0,0,0,0,0,0,0,0,0],"id":35,"left_children":[1,3,5,7,9,11,13,15,-1,17,-1,19,21,23,-1,-1,25,-1,-1,27,29,31,33,35,37,-1,-1,-1,39,41,43,-1,45,47,49,-1,51,-1,53,-1,-1,-1,-1,-1,-1,-1,-1,-1,-1,-1,-1,-1,-1,-1,-1],"loss_changes":[5.2833813E2,7.5459747E0,2.0963766E2,1.1177804E0,7.1736145E-1,1.8593262E1,6.8712006E0,5.68017E-1,0E0,1.0583705E0,0E0,7.4574585E0,5.360104E0,8.660051E0,0E0,0E0,8.3932096E-1,0E0,0E0,1.0881958E0,6.9914026E0,1.5550995E-1,4.7015166E-1,7.016771E-1,2.7968216E-1,0E0,0E0,0E0,4.2507286E0,5.7520795E0,8.807926E-1,0E0,2.689735E-1,1.8442607E-1,5.7903296E-1,0E0,1.0184146E0,0E0,2.6950645E-1,0E0,0E0,0E0,0E0,0E0,0E0,0E0,0E0,0E0,0E0,0E0,0E0,0E0,0E0,0E0,0E0],"parents":[2147483647,0,0,1,1,2,2,3,3,4,4,5,5,6,6,7,7,9,9,11,11,12,12,13,13,16,16,19,19,20,20,21,21,22,22,23,23,24,24,28,28,29,29,30,30,32,32,33,33,34,34,36,36,38,38],"right_children":[2,4,6,8,10,12,14,16,-1,18,-1,20,22,24,-1,-1,26,-1,-1,28,30,32,34,36,38,-1,-1,-1,40,42,44,-1,46,48,50,-1,52,-1,54,-1,-1,-1,-1,-1,-1,-1,-1,-1,-1,-1,-1,-1,-1,-1,-1],"split_conditions":[3.562E1,-1.2066E2,4.1514E0,3.7E0,-1.2059E2,-1.1937E2,4.3542E0,-1.2072E2,-9.936531E-2,3.542E1,-1.5685698E-1,3.9375E0,3.66E1,3.855E1,-1.562101E-1,1.7542402E-1,3.535E1,-1.2406957E-1,1.0902702E-1,-1.1967E2,-1.2179E2,3.641E1,-1.1892E2,-1.2149E2,-1.2182E2,-1.0351117E-1,1.4111635E-1,1.9139905E-1,1.6071E0,3.774E1,3.734E1,-1.4919774E-1,2.5804E0,3.671E1,3.737E1,-1.4906874E-1,3.816E1,1.3001147E-2,3.876E1,-9.733773E-2,1.7096488E-1,-1.3812147E-1,8.4531985E-2,8.548959E-2,2.0817499E-1,-1.0429192E-1,4.198957E-2,5.7573225E-2,1.8484227E-1,-1.0202771E-1,1.1460825E-1,-8.9589655E-2,1.4243802E-1,1.0242465E-1,2.320817E-1],"split_indices":[0,1,2,2,1,1,2,1,0,0,0,2,0,0,0,0,0,0,0,1,1,0,1,1,1,0,0,0,2,0,0,0,2,0,0,0,0,0,0,0,0,0,0,0,0,0,0,0,0,0,0,0,0,0,0],"split_type":[0,0,0,0,0,0,0,0,0,0,0,0,0,0,0,0,0,0,0,0,0,0,0,0,0,0,0,0,0,0,0,0,0,0,0,0,0,0,0,0,0,0,0,0,0,0,0,0,0,0,0,0,0,0,0],"sum_hessian":[2.576305E3,7.979773E2,1.7783276E3,1.0818091E1,7.871592E2,1.558093E3,2.2023462E2,9.216883E0,1.601208E0,5.50573E0,7.8165344E2,1.5275901E3,3.0502945E1,3.706795E1,1.8316667E2,6.1413593E0,3.0755239E0,3.6125338E0,1.8931965E0,1.4327656E3,9.482444E1,2.0301357E1,1.0201588E1,2.4198526E1,1.2869424E1,1.6673007E0,1.4082233E0,1.3892908E3,4.3474785E1,5.0635025E1,4.4189415E1,1.7330988E1,2.9703689E0,7.751679E0,2.4499087E0,1.7493193E1,6.7053323E0,1.0353447E0,1.183408E1,5.4909153E0,3.798387E1,1.3386113E1,3.7248913E1,8.48965E0,3.5699764E1,1.783958E0,1.1864109E0,2.723537E0,5.028142E0,1.3188791E0,1.1310297E0,5.350984E0,1.3543478E0,5.082547E0,6.7515326E0],"tree_param":{"num_deleted":"0","num_feature":"3","num_nodes":"55","size_leaf_vector":"1"}},{"base_weights":[-3.4078088E-2,-5.033522E-1,2.6303473E-1,-5.1040137E-1,-1.6074221E-1,-1.5461583E-1,5.173635E-1,-1.5494911E-1,-4.0114227E-1,9.321019E-2,-1.3347201E-1,5.2879125E-1,-1.390496E-1,-2.5835735E-1,-1.4818095E-1,2.1316992E-1,-1.8035275E-1,3.1870395E-1,5.7490975E-1,3.242218E-1,-1.4309934E-1,1.1270778E-1,-1.4895931E-1,4.1082647E-1,-4.641429E-1,5.8211285E-1,-2.6173586E-1,1.4969261E-1,-9.5815904E-4,1.1271105E-1,-8.925571E-2,1.4981556E-1,-8.212736E-3,-6.363035E-2,-1.6061728E-1,1.7679669E-1,6.486565E-2,-1.2622179E-1,6.8545215E-2],"categories":[],"categories_nodes":[],"categories_segments":[],"categories_sizes":[],"default_left":[0,0,0,0,0,0,0,0,0,0,0,0,0,0,0,0,0,0,0,0,0,0,0,0,0,0,0,0,0,0,0,0,0,0,0,0,0,0,0],"id":36,"left_children":[1,3,5,7,9,-1,11,-1,13,15,-1,17,-1,19,-1,-1,21,23,25,27,-1,29,-1,31,33,35,37,-1,-1,-1,-1,-1,-1,-1,-1,-1,-1,-1,-1],"loss_changes":[2.3204597E2,1.4761353E0,2.0203198E2,2.135315E-1,1.0854387E0,0E0,8.86113E0,0E0,3.7400484E-1,1.5579686E0,0E0,7.183075E0,0E0,2.3212175E0,0E0,0E0,6.73458E-1,1.02221985E1,3.901886E0,3.0123436E-1,0E0,5.728388E-1,0E0,4.863884E0,1.57866E-1,1.5006409E0,5.638717E-1,0E0,0E0,0E0,0E0,0E0,0E0,0E0,0E0,0E0,0E0,0E0,0E0],"parents":[2147483647,0,0,1,1,2,2,3,3,4,4,6,6,8,8,9,9,11,11,13,13,16,16,17,17,18,18,19,19,21,21,23,23,24,24,25,25,26,26],"right_children":[2,4,6,8,10,-1,12,-1,14,16,-1,18,-1,20,-1,-1,22,24,26,28,-1,30,-1,32,34,36,38,-1,-1,-1,-1,-1,-1,-1,-1,-1,-1,-1,-1],"split_conditions":[3.9625E0,3.9187E0,3.513E1,3.7644E0,-1.2166E2,-1.5461583E-1,9.281E0,-1.5494911E-1,-1.2059E2,3.726E1,-1.3347201E-1,4.239E0,-1.390496E-1,3.713E1,-1.4818095E-1,2.1316992E-1,-1.2243E2,3.855E1,-1.1931E2,3.6E1,-1.4309934E-1,3.777E1,-1.4895931E-1,-1.2133E2,3.866E1,8.7471E0,3.736E1,1.4969261E-1,-9.5815904E-4,1.1271105E-1,-8.925571E-2,1.4981556E-1,-8.212736E-3,-6.363035E-2,-1.6061728E-1,1.7679669E-1,6.486565E-2,-1.2622179E-1,6.8545215E-2],"split_indices":[2,2,0,2,1,0,2,0,1,0,0,2,0,0,0,0,1,0,1,0,0,0,0,1,0,2,0,0,0,0,0,0,0,0,0,0,0,0,0],"split_type":[0,0,0,0,0,0,0,0,0,0,0,0,0,0,0,0,0,0,0,0,0,0,0,0,0,0,0,0,0,0,0,0,0,0,0,0,0,0,0],"sum_hessian":[1.6623291E3,6.4418243E2,1.0181466E3,6.307159E2,1.3466566E1,2.5047978E2,7.676669E2,5.938569E2,3.685901E1,7.466173E0,6.0003924E0,7.5928156E2,8.3853035E0,1.6009287E1,2.0849722E1,1.8020322E0,5.664141E0,1.3809898E2,6.2118256E2,4.236912E0,1.1772376E1,3.273509E0,2.390632E0,1.2398419E2,1.4114785E1,6.161818E2,5.000764E0,2.4208405E0,1.8160713E0,2.045987E0,1.2275221E0,1.030239E2,2.096029E1,3.9871354E0,1.012765E1,6.0367645E2,1.2505312E1,3.8830316E0,1.1177325E0],"tree_param":{"num_deleted":"0","num_feature":"3","num_nodes":"39","size_leaf_vector":"1"}},{"base_weights":[1.0754381E-1,-5.048518E-1,3.137486E-1,-1.54844E-1,-1.9233775E-1,4.814093E-1,-5.0660807E-1,2.3548384E-1,-4.4885212E-1,5.6277746E-1,-1.5361139E-1,-1.5475021E-1,1.4498109E-1,-4.7756853E-3,-1.4535517E-1,2.3359199E-1,5.766806E-1,-1.7072822E-1,4.7759378E-1,5.8704954E-1,1.6526487E-1,1.0018125E-1,-1.264103E-1,1.5677716E-1,-9.489599E-2,1.7825606E-1,3.8846508E-2,-1.535566E-1,1.1594236E-1],"categories":[],"categories_nodes":[],"categories_segments":[],"categories_sizes":[],"default_left":[0,0,0,0,0,0,0,0,0,0,0,0,0,0,0,0,0,0,0,0,0,0,0,0,0,0,0,0,0],"id":37,"left_children":[1,3,5,-1,7,9,11,-1,13,15,-1,-1,-1,-1,-1,17,19,21,23,25,27,-1,-1,-1,-1,-1,-1,-1,-1],"loss_changes":[2.4374828E2,1.6172256E0,1.9881139E2,0E0,5.004191E0,9.722684E1,2.4910812E0,0E0,2.2906351E-1,4.9404907E0,0E0,0E0,0E0,0E0,0E0,4.6806E0,4.438904E0,2.4531398E0,1.2132931E0,3.308838E0,4.3215933E0,0E0,0E0,0E0,0E0,0E0,0E0,0E0,0E0],"parents":[2147483647,0,0,1,1,2,2,4,4,5,5,6,6,8,8,9,9,15,15,16,16,17,17,18,18,19,19,20,20],"right_children":[2,4,6,-1,8,10,12,-1,14,16,-1,-1,-1,-1,-1,18,20,22,24,26,28,-1,-1,-1,-1,-1,-1,-1,-1],"split_conditions":[3.3427E0,3.285E0,3.641E1,-1.54844E-1,3.295E1,5.6762E0,-1.1892E2,2.3548384E-1,3.338E1,3.4208E0,-1.5361139E-1,-1.5475021E-1,1.4498109E-1,-4.7756853E-3,-1.4535517E-1,-1.1814E2,3.542E1,3.401E1,3.44E1,5.6345E0,-1.195E2,1.0018125E-1,-1.264103E-1,1.5677716E-1,-9.489599E-2,1.7825606E-1,3.8846508E-2,-1.535566E-1,1.1594236E-1],"split_indices":[2,2,0,0,0,2,1,0,0,2,0,0,0,0,0,1,0,0,0,2,1,0,0,0,0,0,0,0,0],"split_type":[0,0,0,0,0,0,0,0,0,0,0,0,0,0,0,0,0,0,0,0,0,0,0,0,0,0,0,0,0],"sum_hessian":[1.9279832E3,4.8529257E2,1.4426906E3,4.6773615E2,1.7556444E1,1.1982175E3,2.4447304E2,3.221798E0,1.4334646E1,1.1079081E3,9.030953E1,2.4268999E2,1.7830487E0,1.2010932E0,1.3133553E1,4.5617687E1,1.0622903E3,1.7281645E1,2.8336042E1,1.0357592E3,2.6531197E1,5.624434E0,1.1657211E1,2.71396E1,1.1964406E0,1.0195569E3,1.6202238E1,6.2096467E0,2.032155E1],"tree_param":{"num_deleted":"0","num_feature":"3","num_nodes":"29","size_leaf_vector":"1"}},{"base_weights":[-2.1694659E-1,-1.5508273E-1,3.9776403E-1,5.435946E-1,-1.5281822E-1,5.638534E-1,-2.9437804E-1,2.771883E-1,5.758081E-1,5.263168E-2,-1.353351E-1,3.510637E-1,8.750395E-3,5.931907E-1,3.6034355E-1,-4.9889628E-2,1.290633E-1,1.4268231E-1,-1.4517613E-1,1.7928E-1,6.1266646E-2,3.344548E-2,1.6448027E-1],"categories":[],"categories_nodes":[],"categories_segments":[],"categories_sizes":[],"default_left":[0,0,0,0,0,0,0,0,0,0,0,0,0,0,0,0,0,0,0,0,0,0,0],"id":38,"left_children":[1,-1,3,5,-1,7,9,11,13,-1,-1,15,17,19,21,-1,-1,-1,-1,-1,-1,-1,-1],"loss_changes":[2.5236739E2,0E0,5.967948E1,6.7413406E0,0E0,1.1376038E0,8.0079573E-1,3.3567822E-1,1.1437225E0,0E0,0E0,6.190095E-1,1.3139585E0,4.5050812E-1,1.3233895E0,0E0,0E0,0E0,0E0,0E0,0E0,0E0,0E0],"parents":[2147483647,0,0,2,2,3,3,5,5,6,6,7,7,8,8,11,11,12,12,13,13,14,14],"right_children":[2,-1,4,6,-1,8,10,12,14,-1,-1,16,18,20,22,-1,-1,-1,-1,-1,-1,-1,-1],"split_conditions":[5.6345E0,-1.5508273E-1,3.641E1,1.05144E1,-1.5281822E-1,5.6762E0,3.307E1,-1.1784E2,9.281E0,5.263168E-2,-1.353351E-1,3.384E1,3.319E1,3.495E1,-1.1821E2,-4.9889628E-2,1.290633E-1,1.4268231E-1,-1.4517613E-1,1.7928E-1,6.1266646E-2,3.344548E-2,1.6448027E-1],"split_indices":[2,0,0,2,0,2,0,1,2,0,0,0,0,0,1,0,0,0,0,0,0,0,0],"split_type":[0,0,0,0,0,0,0,0,0,0,0,0,0,0,0,0,0,0,0,0,0,0,0],"sum_hessian":[1.3663928E3,9.183645E2,4.4802832E2,3.8632523E2,6.170309E1,3.775253E2,8.799914E0,1.6081882E1,3.6144342E2,2.171537E0,6.628377E0,1.2369842E1,3.7120419E0,3.3283862E2,2.8604792E1,1.4951771E0,1.0874664E1,1.923735E0,1.788307E0,3.2857758E2,4.2610693E0,1.2992587E1,1.5612205E1],"tree_param":{"num_deleted":"0","num_feature":"3","num_nodes":"23","size_leaf_vector":"1"}},{"base_weights":[1.5570152E-1,4.1266596E-1,-5.057775E-1,5.666886E-1,-4.8662117E-1,-3.4707302E-1,-1.5503728E-1,5.80767E-1,2.809962E-1,-1.5440929E-1,2.508101E-1,-1.4715447E-1,-2.091663E-1,-1.1236576E-1,5.83098E-1,-1.930398E-1,4.0978166E-1,3.320386E-1,-3.466369E-2,4.3761188E-1,-1.4562996E-1,5.8930933E-1,2.7681732E-1,1.212584E-1,-1.5828885E-1,5.2298933E-1,1.850863E-1,4.261048E-2,1.6263382E-1,-1.0101978E-2,5.9607774E-1,1.315269E-1,1.7853601E-1,-5.722613E-2,1.4721023E-1,1.7231794E-1,-1.4007054E-1,1.47946915E-2,1.6864866E-1,1.496301E-1,-7.014682E-2,6.755024E-2,-4.1015454E-2,2.2199659E-1,-7.899384E-4],"categories":[],"categories_nodes":[],"categories_segments":[],